{
  "layers": [
    {
      "activation": 1,
      "biases": [
        -0.5951991544323463,
        -0.07039530979544519,
        -0.5549398895405596,
        0.47483999721155257,
        -0.036614633660250105,
        -0.11609432907972418,
        0.014281063238496663,
        0.09967441973323458,
        0.03193585364111021,
        0.12677924271065835,
        -0.06829073587361614,
        0.25238225953003907,
        0.24866614942937687,
        0.24734623759833627,
        0.06365289530104713,
        0.066683378934085,
        0.016537798477518486,
        0.13098305983294778,
        0.519186072516789,
        -0.26531819382790833,
        -0.22506626325910534,
        0.2995995128865802,
        0.05099658920382244,
        -0.9472425053647523,
        -0.7342497381791816,
        0.07116487878982056,
        0.36669778132678255,
        0.35229006670374025,
        0.2762952677568006,
        0.5300142594981241,
        0.23351014083323707,
        0.46124009803997545,
        0.09609768920052143,
        0.012922828515394431,
        0.2033668679429556,
        0.5886230761287868,
        -0.7434168501408848,
        0.7269636144535697,
        0.10214130253742626,
        -0.3531595177736146,
        -0.056590524713098264,
        -0.03314453370084056,
        0.3336263921845317,
        0.13544560790946086,
        0.9337438803665061,
        -0.18670970649896762,
        0.21352501024947437,
        0.0430398095797935,
        0.6547862960666451,
        0.8407656231193233,
        0.14493218294504054,
        0.9957626121923455,
        0.0036403354693531564,
        0.26028878317406134,
        0.49829150455685794,
        0.24508494861445637,
        -0.056732711333548104,
        0.28509102528921876,
        -0.41330376167931804,
        -0.28637713188227165,
        0.03717753561256033,
        0.13789144909481035,
        0.07901142893534377,
        0.316296425215516
      ],
      "cols": 64,
      "rows": 8,
      "weights": [
        [
          -0.34918796307458055,
          0.1487610789847574,
          0.6947390371761543,
          -0.24045575477011777,
          0.6988414076312265,
          -0.09800609290321306,
          -0.054523299827671484,
          -0.6978417538516636,
          -0.7388304598288988,
          -0.6786943373740617,
          0.9452949294138819,
          0.8279588075554264,
          0.989946993582655,
          0.8779289314984978,
          -0.1711635590086235,
          -0.7519908340708574,
          -0.18625502085876533,
          -0.18513469744815567,
          0.7080683927765574,
          0.5245594152559662,
          0.2712348304889448,
          -0.8279599670247114,
          -1.0262466290379033,
          0.1566423485194909,
          -0.09953956040282656,
          0.8277688904796734,
          0.534262166312385,
          -1.3096725172753738,
          -1.1503831934519075,
          0.5356802753121107,
          0.37003875431781086,
          -0.4751544682430877,
          -1.1778993665555608,
          -0.5356176962516248,
          -0.5792774611524905,
          1.0930654306863898,
          -0.42474620680740566,
          -0.7492952380397448,
          -0.5814278914840202,
          -0.06211418406554967,
          0.4861311428432617,
          1.0014334123712767,
          0.2861217398454656,
          -0.4348973731928669,
          -0.10465271972212425,
          1.0871431159824345,
          1.0049753754701336,
          0.8583205500770332,
          1.0196845759272608,
          0.13880668051018902,
          -0.48505999031330355,
          1.2074351523264295,
          -1.4070406509170437,
          1.392685298230795,
          0.2860324532612436,
          1.0088015108959962,
          -0.19394359132359903,
          -0.44071910033016926,
          0.7369219965855242,
          0.9339278873714686,
          -0.6132590268543004,
          1.4683820189775667,
          0.1438880814575292,
          -0.4703088734178982
        ],
        [
          -0.6738545872751988,
          1.5136811964912908,
          1.301993477868876,
          0.28152184502380584,
          2.1476664849940557,
          0.2886129751393033,
          0.40897402103709884,
          -0.8006487908833151,
          -0.9167557139186863,
          -1.2489746856863613,
          0.9570793247934664,
          1.1266358749302627,
          1.2720782870042349,
          2.045052177738866,
          -0.11594715256021522,
          -0.5878933232863028,
          0.16596361546701946,
          -0.6268116184382021,
          0.870442326006328,
          0.18009367138237067,
          1.420919112466847,
          -1.5559455129298672,
          -0.49034435025973794,
          -0.29564686633918774,
          0.4538326953132763,
          1.175803287829712,
          2.150692194189726,
          -1.8500324091500093,
          -0.8388061170053432,
          1.605972831721974,
          1.7934705363554173,
          -0.5308950038754414,
          -2.111387125399062,
          -0.4072540584581438,
          -1.4822199358580355,
          1.7601405814230249,
          -0.9807415014142313,
          -0.9896435060857168,
          -1.0010405195283183,
          -1.841387432061329,
          1.413723625352171,
          0.5611811237484701,
          -0.7386402801065779,
          -1.0281607134660236,
          1.2706639695312802,
          0.7873017164291521,
          1.1450470160235122,
          1.477281392896999,
          -0.13094108017613992,
          1.2455795551296414,
          -1.0944058641629726,
          1.3393885334366553,
          -1.7174245230500447,
          2.4039162207739726,
          0.2030569500809291,
          1.2234264107078032,
          -0.06852202671338074,
          -1.3593384383404499,
          1.0080477329812922,
          0.8015978478931074,
          -1.4522012769420423,
          2.3943683480753934,
          0.23621922987871147,
          -1.6237282392911352
        ],
        [
          2.710514367997636,
          1.8671783319524284,
          2.4014395975028733,
          -1.7740077276609336,
          -0.6195306044281806,
          -0.17952298017916893,
          -0.9508585007347881,
          1.7865621919590144,
          1.5867127827927767,
          0.8085653208988909,
          2.084228782480035,
          -1.723317484256425,
          -1.9629264802027737,
          -1.3496380280669902,
          -1.3719119537186921,
          -0.6027983584179896,
          1.3401254528394395,
          -0.8927321100113952,
          -0.45408130816585335,
          -0.33354471284987364,
          1.3812656474884049,
          0.38839768424060966,
          -1.586161527245753,
          1.9584955364743604,
          1.3054200499653488,
          1.4859236502318334,
          -0.4621737586173099,
          0.4139187927826745,
          -0.3245881772786945,
          -1.531437553414886,
          1.1464840252116932,
          -1.1208722977569852,
          0.874758892528047,
          0.15835379215259615,
          1.4581410383750413,
          -1.06957372114379,
          1.7840587534483334,
          -3.0819026014485935,
          1.1076024066659904,
          1.8972715395331323,
          -1.360988433066423,
          1.608917966667252,
          -0.8163019788495884,
          0.2232396450448423,
          -2.005337931789176,
          2.0679805942926577,
          1.3913605510746576,
          -1.9657025042559328,
          -0.7833041354823325,
          -1.17619252230841,
          0.26221306433315716,
          -0.37479165817468696,
          0.3020082157694275,
          1.8481305246634212,
          -0.5115949377147317,
          1.412925599047854,
          0.408419616414769,
          0.6531218582274435,
          1.0717958329592212,
          2.5958736815792554,
          0.48140165739702434,
          0.04605168758618025,
          0.09919261530674281,
          -0.07944882908514944
        ],
        [
          0.0064951519623514115,
          -1.497189288664073,
          0.2787976024665978,
          -0.30840284772352444,
          0.24020066299380596,
          1.5279926986992938,
          0.7976224411600373,
          -0.2013896550624227,
          -0.3165079313403821,
          -0.6458468968747851,
          -0.6215028896912975,
          -0.18719884661364647,
          -0.25063293035673256,
          -0.5717596042593962,
          0.6387768787538244,
          -0.9059524167139742,
          -1.855517243388488,
          0.37607031692653764,
          -1.335704527085396,
          1.5763532030023162,
          0.1931756479880609,
          -0.704978870152338,
          -2.197509692140726,
          0.9833033193162659,
          -0.06077391870993465,
          -1.0203052958270815,
          -0.4418816053189116,
          -0.7041094177274347,
          -1.1222592338470188,
          -0.4713245100533842,
          -0.6770183205399278,
          -1.7983660499628877,
          0.12371458494001587,
          -0.15087461820724687,
          -0.3573050456658982,
          -0.2507499717895087,
          0.5627736155000818,
          0.10710934449501255,
          -0.01241878392025747,
          0.6033546218721472,
          0.048745723236106375,
          -0.42271444984901796,
          -0.13031997542913054,
          -0.7480063355229094,
          -0.7316377500401506,
          0.032269407689424955,
          -0.6899550476000613,
          0.13615636040403795,
          0.5953231563505651,
          -1.3759433586163439,
          -0.463758422507489,
          -1.4508652589955702,
          -0.5114202220981582,
          -0.7147674640736301,
          -0.9642617632487479,
          0.4512253121843712,
          -1.1421111821071968,
          -0.8879606143064183,
          1.5270371344919702,
          0.11060004237964256,
          0.143393220814039,
          0.6911479855474317,
          -1.5128514191445956,
          -0.7968951863419954
        ],
        [
          -0.8495405263449762,
          -1.2220421941608104,
          -1.2243563019785957,
          0.7795259627800087,
          -0.7560454352734385,
          0.4604445795385265,
          0.509336805085507,
          0.17881836346112936,
          0.49549091986602334,
          0.48991440676901177,
          -1.4345028063577996,
          -0.08735376503706103,
          -0.25105021217415,
          -0.29334586750270375,
          0.8546807566858261,
          0.9625628296372044,
          -0.6941893415683461,
          0.2834553362796677,
          -0.3041980742259943,
          0.11906962639822254,
          -1.0919061530770473,
          0.5858605531235053,
          0.6545547862054547,
          -0.5844592840009387,
          -0.7555805747417891,
          -1.4195644835580539,
          -0.5303189220011759,
          0.8485528782525993,
          1.4896255545105734,
          -0.2882033525253457,
          -1.036176971560082,
          0.15837599125364288,
          1.0619896463402747,
          0.710778418273357,
          0.4550434909398247,
          -0.7364145196030641,
          0.15011866767012041,
          1.2943042805379865,
          0.18511754318436913,
          -0.4013415543201406,
          -0.24580409983529541,
          -1.4200595267236193,
          0.7343965968519321,
          0.6475684370216275,
          0.46902070273722496,
          -1.525609551590007,
          -1.5285639743694432,
          -0.3401588106723302,
          0.2240278939805066,
          -0.19168419793648112,
          0.6812046599414039,
          -0.7297536024985612,
          1.03634439173385,
          -1.4747319279001876,
          0.11729344311423216,
          -1.2813391568024566,
          0.17915126164047396,
          0.5479140200586053,
          -0.4203196824096377,
          -1.2185360703514705,
          0.6813516072241469,
          -1.2434273650559908,
          -0.17898576538388267,
          0.974059232336711
        ],
        [
          0.4359432556706536,
          -0.448038588424854,
          -0.9191490343673724,
          0.1443038973715226,
          -1.2613258884345713,
          -1.2272281032890633,
          -0.7169380045397633,
          1.3433472325001905,
          1.4391285360268102,
          1.4807357916328525,
          -0.012862544821563533,
          -0.45582144629430366,
          -1.0024387084453052,
          -1.011062040617535,
          -0.49012016529297375,
          0.8289575190148403,
          0.5286324887639884,
          0.5081507508454067,
          0.7193191763018675,
          -0.6305380218869726,
          -1.1840219619921204,
          1.4063018479245408,
          1.0531786534334995,
          -0.759762662145128,
          -0.42155134250854936,
          0.35985546215069053,
          -1.0721834036644757,
          1.7419361105022266,
          1.3610464006818366,
          -0.5767302610161679,
          -0.8354692151056482,
          1.3529930084740678,
          1.7234768569366643,
          0.48637730354421854,
          1.7228442984935994,
          -0.6870888710019785,
          -0.2998675032497461,
          0.3855715264561779,
          1.0766930691131849,
          0.46518936999539384,
          -1.2030957551286594,
          0.43885803113171745,
          0.43576934668664624,
          1.099263420154942,
          -0.3092490353168744,
          0.011522964447166642,
          -0.15526796295085726,
          -0.7265142296541173,
          0.07475527707486267,
          0.30941828915949304,
          0.902837893338618,
          0.8941538289242975,
          1.159519735318138,
          -1.0784373048762461,
          0.24602897596673462,
          -0.538175253811988,
          0.6070527005842701,
          1.651394152092842,
          -1.2496464929001898,
          -0.6206478116906972,
          0.9475004417011526,
          -1.1429753119317079,
          0.8181664498707147,
          1.4480543469339189
        ],
        [
          0.7890462005542916,
          1.657877084557373,
          1.5994075532945635,
          -0.8843894786178558,
          1.3188187021021063,
          1.1324546224068226,
          0.5981954800501386,
          0.5010209898617187,
          1.158831183638967,
          -0.9426087831172345,
          -0.6699289667090728,
          -0.8789462478180867,
          -1.1449906059301909,
          -0.6446880863813464,
          0.5363981319660917,
          -0.6097722502713335,
          -0.7929251732637238,
          -0.4260995207209214,
          -1.9436621940343841,
          1.2924317504126739,
          1.8082820923932688,
          -0.1667121218703766,
          -0.8943121338367068,
          2.337199369665401,
          1.9289866924251529,
          -0.7748806960567525,
          0.654207998508135,
          -0.7054346690427754,
          0.08013501116163581,
          -1.256787184454919,
          0.8611017537433604,
          -2.0623358951502997,
          -0.22393721005269537,
          0.5676460802985581,
          -0.7096708780002398,
          -1.2731013076772388,
          2.1953784695094045,
          -1.3991175865272212,
          -0.0695986964686925,
          -1.3493176356720815,
          1.8741410751543794,
          -1.5983750326474675,
          -1.2162826196830558,
          -0.6663136312967594,
          -1.0184636853185756,
          -1.0102380694324236,
          -1.056857134609545,
          -1.4073851095109584,
          -2.0376377738695948,
          -1.5969507771483205,
          0.5813728227416702,
          -2.7643238863033335,
          0.41820909732616585,
          1.0008457535155004,
          -1.3476312601716214,
          -0.8102368537182615,
          -0.7426347695545269,
          -1.1544257445066721,
          1.565069670025145,
          0.3306085662943128,
          0.032869918864473255,
          0.4503411595873909,
          -1.3168058270647802,
          -1.3076898638401382
        ],
        [
          0.11144109234065927,
          0.04504612389605266,
          0.12918985148268977,
          0.06057363900150265,
          -0.2344329183540367,
          -0.2385827269981702,
          -0.09049380044895093,
          -0.13495566494767317,
          -0.02017710412830107,
          0.02917824457105868,
          -0.13608620818878905,
          0.06865153300981888,
          -0.06844949517153341,
          0.0950534335821427,
          0.13489908257733768,
          0.2816146871059081,
          -0.16334839167830836,
          -0.20750470126847143,
          -0.04649874366447995,
          -0.2444625647162186,
          0.2819637357074828,
          0.2854658131767394,
          -0.2768976916905944,
          0.1976344588328031,
          0.196468959219933,
          0.08425461826237689,
          0.17222315207488073,
          0.27985746711409876,
          0.04962642511645252,
          -0.21498252039436244,
          -0.12135750755630184,
          -0.23236647526877485,
          -0.15695582134542999,
          -0.19786913797833694,
          -0.017616857326904038,
          0.014782628515608855,
          -0.14144138228136532,
          0.0486320394463096,
          0.24423616130121756,
          -0.21066353621362027,
          -0.05285786399030348,
          0.13226931367100234,
          0.11934129661217703,
          0.013656058334911838,
          0.09910675342406804,
          -0.10127066392433584,
          -0.10744827335300539,
          -0.28146134762139396,
          0.28270096048501187,
          -0.009538883739085577,
          0.14840914465318888,
          0.0716770822361665,
          -0.06707220815595567,
          -0.1413525497800509,
          -0.2728634491523816,
          0.214664987426469,
          -0.19029549464662127,
          0.056653215315207166,
          0.1943720815455117,
          0.27828726809342397,
          -0.09624852225196102,
          0.045597912840099786,
          -0.04577409459910088,
          0.28268169686847827
        ]
      ]
    },
    {
      "activation": 1,
      "biases": [
        0.028398714554638334,
        -0.1992098985992024,
        -0.01646744197842846,
        0.058492462162364936,
        -0.1251649933805856,
        -0.12606488893166964,
        -0.23716765266673628,
        0.016821952541570047,
        -0.412402265431638,
        -0.09123355228323543,
        -0.05784399814069295,
        0.10739816753435784,
        -0.061668702587832795,
        -0.04105158426654218,
        -0.05672978391205904,
        -0.14009872352107625,
        -0.0066533961732109705,
        -0.0491936716400187,
        -0.3742922887833943,
        -0.6035508925621917,
        0.02304599005825476,
        -0.27083899176289755,
        -0.511876814719904,
        -0.07912969169438534,
        -0.47450533319256427,
        -0.279496487962725,
        0.21529034228990696,
        -0.334551078784124,
        0.042367791809875155,
        0.20072143030338865,
        0.0062562127805576625,
        -0.33348559026805774
      ],
      "cols": 32,
      "rows": 64,
      "weights": [
        [
          -0.12483914077416623,
          -1.7083489127949014,
          -0.18642473205140858,
          -0.6685540158638307,
          -1.401266293964724,
          -0.4026285801401382,
          0.32266449068552516,
          0.9702750772464709,
          -0.7834641978934517,
          0.2115620187756269,
          -0.14230336260958237,
          -0.44827069954290494,
          0.07533026406010333,
          0.14509358121849764,
          -0.1736504678841126,
          -0.22888777645957709,
          -0.4373814910467311,
          0.05124408516174272,
          0.8600487968126398,
          -0.9218260038695618,
          -0.20736906705034908,
          0.03607141022977912,
          0.19716603238002914,
          0.07325956004058728,
          0.5835062305430266,
          0.8902958481835159,
          -0.3631001507964612,
          0.7838863379093773,
          -0.043979682080676,
          -1.2667140133141686,
          -0.04317247086754469,
          -0.7253624455834496
        ],
        [
          0.21100160770230367,
          -1.0128803704494542,
          -0.34145606083482655,
          0.3229274810595764,
          -0.2622049090447917,
          0.15114693519376032,
          0.6710769229947963,
          0.013718512028644466,
          -2.0595391080147656,
          0.48745422707211633,
          0.1451486070960782,
          0.07926154190026204,
          -0.03403070264903638,
          -0.19356053253638764,
          0.7294890986359186,
          -1.147587501324837,
          0.0031426714389706425,
          0.08691211727006855,
          0.8401375345990649,
          -0.287148747081771,
          -1.1859022143523803,
          0.886958808447946,
          0.43704155279575774,
          -0.0989501193638038,
          -0.4518318459726565,
          -0.30033475086350003,
          -0.5199128710807874,
          0.8116169044000758,
          -0.44103693664828214,
          -0.7991678817582799,
          0.15217735441723032,
          0.3445782708444492
        ],
        [
          -0.08700882304639641,
          -0.8176746914511366,
          -0.11172178088963529,
          0.3931915856090746,
          -0.4035005435539562,
          -0.6132766325893585,
          0.629740406890977,
          0.7845737451085801,
          -2.5164682520534845,
          0.2073006162959945,
          0.2739088334463637,
          0.30583829541353774,
          -0.2552246696139805,
          -0.08205285739405604,
          -0.4251552680955406,
          -1.0348509850352605,
          0.024549371576653697,
          -0.10188726866681337,
          0.6439423040000594,
          0.146518385804548,
          -0.3637317502978582,
          1.2620676689335266,
          0.7834187375074301,
          -0.03494307125352201,
          0.17754922611744617,
          0.06327381232185579,
          0.11306576644311565,
          0.9653461522271714,
          0.013743477289176386,
          -1.1752525665932727,
          -0.19712014420848126,
          0.8063024345215029
        ],
        [
          -0.0007016886586971166,
          0.32632783728183334,
          0.03891886166858254,
          0.4892951377906398,
          0.4397904184315407,
          0.17874535492003968,
          -0.6594769161626709,
          -0.47933262491532486,
          0.6526801597806107,
          -0.3069758225774849,
          0.21137206075245474,
          0.3010761150914334,
          0.15767274338993312,
          -0.10542038364499877,
          0.21310307356718963,
          0.3205284439193395,
          -0.005515134720365651,
          -0.21090078871519594,
          -0.7427371616771442,
          -0.14697905984495085,
          -0.10251575388586702,
          -0.7099696979531904,
          -1.0067195673770957,
          -0.14032748247504598,
          -0.6636442475490522,
          -0.5042970245373045,
          0.16824993712296196,
          -0.9527537014613102,
          0.14273839253660128,
          0.9581337579187998,
          0.2675748302324515,
          -0.25647196160228464
        ],
        [
          0.19823010905774993,
          0.09588977836530818,
          -0.15931331152808928,
          1.0022812178795184,
          0.5291381144669315,
          0.00450248085393512,
          0.8939267218304948,
          0.1624472224541191,
          -1.6900216346305863,
          -0.21395212249570586,
          0.3228617188733259,
          0.7939218370445045,
          0.1412701994005911,
          0.23412435224475564,
          0.0366941415959553,
          -0.46882897163923426,
          0.17442604596414057,
          -0.012534510307084915,
          -0.8320769413505404,
          0.4802873628206889,
          -0.2680400223705732,
          1.0192261863388647,
          0.9183662699438098,
          0.045641333088332736,
          -1.5623846372980745,
          -0.630696470127855,
          0.05748205453555843,
          0.08897111329590067,
          0.07317734738508962,
          0.1384474788849701,
          -0.04085687627127391,
          1.1088903978248694
        ],
        [
          0.2632494468961388,
          -0.005871264102349184,
          0.19467286507605022,
          0.8457466329344413,
          0.14922214010407073,
          -0.060742024228721825,
          0.34682792135131235,
          1.1013996494102631,
          -0.6117228141338227,
          -0.543766139457435,
          0.23590479911352885,
          0.8113127552268,
          -0.037312791501334104,
          0.008098773236830758,
          -0.401157389106716,
          0.05381953917011986,
          0.17426372267055634,
          0.04396391576520912,
          -1.0806995052963009,
          0.07771750088073709,
          0.1777516718219164,
          0.3938262153496547,
          0.21058203311663934,
          0.19497764988881025,
          0.09489578667202846,
          0.5433867606105874,
          0.6735584931808992,
          0.1050168958912232,
          0.39240719335417107,
          -0.28313161972833584,
          0.17412188185190786,
          0.17409658097979636
        ],
        [
          0.14593223172580513,
          0.32347987357523866,
          0.3228802930281752,
          0.7812826546425521,
          0.03318772246296407,
          0.30829692010605864,
          0.1259400532107411,
          0.4847087384215765,
          -0.4545110871984473,
          -0.4863735125376426,
          0.12033391836370388,
          0.3674081554683248,
          0.20396245519568912,
          -0.1620232704830433,
          0.06484672226859961,
          0.26166457111755137,
          -0.08504700971698527,
          -0.0694211147178646,
          -1.123449614546389,
          -0.2207023051571262,
          0.19297429883206557,
          0.22700845436548125,
          -0.18331929991627308,
          -0.004481504470574424,
          -0.4690423276460724,
          0.14401365962003848,
          0.6545694860094736,
          -0.15085813054960295,
          0.3384335263161222,
          0.20616678178557796,
          -0.13879437262121203,
          -0.20916631549669432
        ],
        [
          -0.04466431596409904,
          -1.4787498715249698,
          -0.10757571418645376,
          -0.7384345158219204,
          -1.023712201225086,
          0.18125248693489399,
          -0.23398501830595608,
          0.5468932472572618,
          -0.12150025556107963,
          0.0039702170270206815,
          0.11222416938547286,
          -0.25348378561009566,
          -0.18981588201665958,
          -0.08221590352100715,
          -0.16114963071027796,
          0.07013403256435866,
          -0.37023930402062316,
          -0.2968210096873809,
          0.24930317229381366,
          -1.3762072247625288,
          -0.023280682068703408,
          -0.4078907077212489,
          -0.10447079186607384,
          -0.3625303294075909,
          0.33069371343012827,
          0.3859929074936247,
          0.18432823611912472,
          0.33537078539934795,
          -0.13617339285350816,
          -0.8098538381545952,
          -0.3431718052339434,
          -0.9251070352165429
        ],
        [
          0.23106488051640484,
          -1.3794578209227317,
          -0.2035530411408041,
          -0.9929909966865469,
          -1.4215260784589083,
          0.22755087741159188,
          -0.020917936811592357,
          0.9725837507950589,
          -0.29421043569029337,
          -0.20876123182240688,
          0.1557910272702413,
          0.07097556298436229,
          -0.14525838772922858,
          0.02130879748602568,
          0.0035316281069654063,
          0.44697624195411234,
          -0.026855550513687928,
          0.13463130286693123,
          -0.20201084720461476,
          -1.1336399922109772,
          0.10581439869898308,
          -0.551563530664178,
          -0.08195368081402454,
          -0.23444804629674076,
          0.49171314666387533,
          0.9070286314782073,
          -0.09780474622218417,
          0.16558308180020928,
          -0.05322110969117449,
          -0.6831933162640281,
          -0.15453560804050634,
          -1.125372666887225
        ],
        [
          -0.15729947168726519,
          -0.5455014262287186,
          -0.26278303459755753,
          -1.052422357498268,
          -0.7897255576975666,
          0.4257702445422077,
          -0.7965686958334088,
          -0.01636564662752474,
          0.7974239253454459,
          0.025022010435577977,
          0.1086272330853322,
          -0.7221144699150271,
          -0.11569206062081235,
          -0.019706788559194683,
          -0.0540393279108894,
          0.16784751570017475,
          -0.2930230285803277,
          0.14327417041709092,
          0.4366871364964522,
          -1.0235932575354714,
          -0.1285793179784747,
          -1.2658536768022552,
          -0.781229897033301,
          -0.15331117119335166,
          0.45045879156526614,
          0.159482787788288,
          -0.09408057686496613,
          -0.16356696762233702,
          0.037819055622937775,
          -0.3383616661496359,
          -0.22185950314718156,
          -1.0923880816697442
        ],
        [
          -0.5226074145626983,
          -0.5172522054710583,
          -0.027970154876812803,
          -0.6511764704421715,
          -0.03809252362569402,
          -1.1065537315355702,
          0.3390424125815374,
          -0.2774433068218353,
          -1.375974147382831,
          0.2970015589898302,
          -0.2837653662207946,
          -0.5655702950629712,
          -0.14146681612401477,
          -0.26778915178864404,
          -0.704536752987991,
          -1.1924212618123506,
          -0.03035634271734756,
          0.21014244616283703,
          1.1222795675370614,
          -0.278339077457601,
          -0.27633044299562987,
          0.6973823974766514,
          0.03724045088073583,
          -0.07032136031490022,
          -0.7376621451468328,
          -0.5628855893162261,
          -0.209407421889679,
          0.23912141224787414,
          0.03800178977178091,
          -0.7266229220799676,
          -0.22220594354189302,
          0.06316021385191764
        ],
        [
          0.24990866513525678,
          0.9423802438715397,
          0.14436222708988158,
          0.825856170629657,
          0.851278445791679,
          -0.44299689093791395,
          -0.16732339047481232,
          -0.8410135619000716,
          -0.2411512149028319,
          0.06604875497400996,
          -0.02760536397248402,
          0.2990625883494112,
          -0.14095648124875823,
          0.1369487057470046,
          -0.16112198999476382,
          -0.4901517247990331,
          0.1523216328035039,
          -0.03864845161251703,
          -0.4434667628201063,
          0.5599140230342371,
          -0.04305634718749323,
          -0.19797553942850765,
          -0.6633896463859776,
          0.2247238263003666,
          -1.2785318699521744,
          -1.133221507856179,
          0.017092421273218077,
          -0.5440096319630803,
          0.16503005751104804,
          1.0590167556315442,
          -0.20973914494673818,
          0.7763299348923908
        ],
        [
          0.21630858583248996,
          1.3286447724941237,
          -0.2244479651073348,
          1.0633232871541871,
          1.0986813623562024,
          -0.5025334383212698,
          -0.2969483497013145,
          -1.2776648614682153,
          -0.7448840876848092,
          -0.15555997633435645,
          -0.11385991822603407,
          0.2195986658517132,
          -0.14646433094534247,
          -0.24437486611048007,
          -0.4063536596204946,
          -0.5519177517238182,
          0.3169415615041955,
          -0.20809249890043016,
          -0.39387591678530115,
          0.9728766025670755,
          -0.2600931637337062,
          -0.0433023537068692,
          -0.5495083191966348,
          -0.08409032045389576,
          -1.1101997497124763,
          -1.4020287533443312,
          -0.05311684161600994,
          -0.8846260078086366,
          -0.09867930212842847,
          1.2776191743968193,
          0.15887616232259202,
          1.1165361494879174
        ],
        [
          -0.017267003055008088,
          1.0315349370969622,
          -0.12993056289663668,
          1.2346472272558466,
          1.4144775110783088,
          -0.7582640458426784,
          0.02659151989612136,
          -1.1996046823367292,
          -1.2393869513274975,
          -0.14544470585709968,
          0.011052097516265067,
          0.42284830880091173,
          -0.1779197222551697,
          0.08699586844776637,
          0.029068276730182283,
          -1.1056707321294665,
          0.27962496621184096,
          0.06504061578646142,
          -0.35136936153205967,
          0.7485501078219083,
          -0.1387207552889568,
          0.40039273928031693,
          -0.13758429455245333,
          -0.07428561878522077,
          -1.425857902830092,
          -1.2305868239234938,
          -0.03326433016441127,
          -0.5059934332885238,
          -0.18660068893446205,
          0.8849829996841919,
          0.18057287818921303,
          1.2894178366358946
        ],
        [
          0.18598969870865922,
          0.43226081014257345,
          0.3330787791134743,
          0.7244087785088118,
          0.10249355258319486,
          0.5623089019947085,
          -0.2406297096382428,
          0.48488996607205265,
          0.05808992666137644,
          -0.28572533754237045,
          0.059442377628052476,
          0.6365308872676037,
          0.10538432831288598,
          0.2502409518749264,
          0.20855086502889442,
          0.5323355453286801,
          -0.01535505077872986,
          -0.17930659686234723,
          -1.0678435461951457,
          -0.2845330938332435,
          0.45446026687148466,
          -0.0035256578697208983,
          -0.2224183346578489,
          -0.21735362012310985,
          -0.1257365353746285,
          0.20700192513354845,
          0.284150112009936,
          -0.444478436964667,
          0.14290452382009422,
          0.5780145492994414,
          -0.11592153877968743,
          -0.1349921688337738
        ],
        [
          0.0965074413730794,
          -0.26811170705404697,
          0.030697419014374977,
          -0.21978262054940922,
          -0.28618576771094023,
          0.7158748793961691,
          -0.5659976425006706,
          -0.29193931156425557,
          0.5816633171412756,
          -0.059219600931345234,
          -0.11511701239494833,
          0.05726442826022504,
          -0.14393150346253078,
          0.03673580262415879,
          0.6841932387844796,
          0.2155285385732311,
          0.10870772225018281,
          -0.28149212602415874,
          -0.03832640062996362,
          -1.0367565954338205,
          0.11099987271375053,
          -1.0565779025418816,
          -1.2119261658705272,
          -0.008521240583948255,
          0.16393719105959229,
          0.0034875509423439284,
          0.11632520958649764,
          -0.7602811950037073,
          0.03687603112359959,
          0.3574149491571619,
          -0.08137471706052347,
          -0.6277600620268977
        ],
        [
          -0.16102732659768304,
          -0.8383561129373113,
          -0.03456333801610852,
          -0.584664966019927,
          -0.2925083752596417,
          -0.3583914740443949,
          -0.370439128787774,
          -0.8413082475535528,
          -0.14688014099040653,
          0.224639465924268,
          -0.20330114534082402,
          -0.4826172247468942,
          0.052689297028265754,
          -0.1869457076464869,
          0.35533851689344625,
          -0.7906875397642923,
          -0.20150499987645706,
          -0.17642125726351288,
          1.1772414024720965,
          -0.44757512281720097,
          -0.8238493817541588,
          -0.42334401547198214,
          -0.5500737210492522,
          -0.25117431467131673,
          -0.3429151110224956,
          -0.512431596199465,
          -0.5474777804852967,
          0.0243106882574332,
          -0.26642868085945937,
          -0.23291194348182168,
          -0.11663816806443429,
          -0.3570955360550773
        ],
        [
          -0.13031858224040607,
          0.1764249728526476,
          0.10311123364977004,
          -0.31708108574430965,
          -0.004214395676937286,
          0.08675402742907382,
          -0.30255675872204135,
          0.038280601009008056,
          0.39672825780350013,
          -0.31493547594414073,
          0.10542706564304363,
          0.23244724843268047,
          0.07266814016828463,
          -0.04421087789426139,
          -0.024544465270817866,
          0.6679418489455032,
          -0.11238384531935096,
          -0.05654057467528203,
          -0.35491882372428935,
          -0.17650426243187234,
          0.4811014785064472,
          -0.5602683326553638,
          -0.8011705401265479,
          0.00916508713674146,
          -0.24499672179140594,
          -0.12483543418374189,
          0.4354996308694727,
          -0.3363078806288376,
          0.2834757989826161,
          0.22290965378556424,
          -0.09179778490013461,
          -0.5160863788685179
        ],
        [
          -0.11080719076259356,
          0.5756400059740431,
          -0.08293457950880359,
          -0.177509641832657,
          0.523693446142703,
          -0.2471282506915593,
          -0.46103932387287316,
          -1.3599182372442946,
          0.09192698425988421,
          0.20530032217325464,
          -0.08856985423136181,
          -0.8739771467593023,
          -0.26025080310945586,
          -0.008438659852396726,
          0.04173233579920752,
          -0.7583853427125823,
          -0.16517312767472744,
          -0.020103049277636575,
          0.2902238696531713,
          -0.4086536735553754,
          -0.16496259785629025,
          -0.6701533170821243,
          -1.1773919328167703,
          -0.23437016142710776,
          -1.0405072555854837,
          -1.161808270428698,
          -0.36550906635981795,
          -0.8396131730018674,
          -0.09640599797760536,
          0.3856387971817118,
          -0.2145702836742789,
          0.04724905993076213
        ],
        [
          0.4821835122725509,
          0.12067264384766696,
          0.08219513565125329,
          0.46873958249397535,
          -0.06290174849056189,
          0.15026904462756205,
          0.23587565090516735,
          0.967264503139317,
          -0.8455439450714938,
          -0.26159756399465417,
          0.28911235887873665,
          0.6393034976231702,
          -0.14472381840305729,
          -0.07778119646469013,
          -0.5588472345834055,
          0.493169704771973,
          0.2905391113815993,
          -0.2962655825856377,
          -0.8886632891369433,
          -0.06844840540837506,
          0.5376224154524194,
          0.6223991141548076,
          0.35533316721339914,
          -0.11732722510609214,
          0.11028852777656153,
          0.3070632992112837,
          0.4489204794580679,
          0.2777979415851972,
          -0.05164773464238765,
          0.021539264133553622,
          -0.10039201593795789,
          0.5221752308881231
        ],
        [
          0.21921639057425246,
          -0.2869078717610617,
          -0.17486889872396796,
          0.7371586148226302,
          -0.2817175289664548,
          -0.1379601944987453,
          0.9618714000995146,
          0.7349025788973395,
          -1.8444636541145683,
          -0.15556187308364872,
          0.05797409227355389,
          0.64807579993923,
          -0.0981615175734213,
          -0.24720848276784976,
          0.010931376089943073,
          -0.9629491002753596,
          -0.08137262819644049,
          0.13585525301961301,
          0.3206555284235055,
          0.3912952175198631,
          -0.60643640685418,
          1.308074653930148,
          0.897052031540487,
          0.002684544327632965,
          -0.1676225087101696,
          0.045430464384680555,
          -0.18591108827922817,
          0.7278495471323453,
          -0.08348281777815705,
          -0.907403273913793,
          0.038411597289394805,
          0.6707550288909269
        ],
        [
          -0.040415178625363785,
          -0.9148622048533609,
          0.21758436025552605,
          -0.6032374835500834,
          -0.8593812975592015,
          0.5267288703881204,
          -0.8078896908712614,
          0.05623592968946196,
          0.5971469412236742,
          0.06426188300376863,
          -0.06511922920845838,
          -0.23074247608041326,
          -0.19886263369475737,
          -0.23284896359156576,
          0.26101536224131416,
          0.6420224737759812,
          0.005149014868408082,
          -0.17748408612303226,
          0.0935150136084534,
          -1.2983536637718749,
          0.056898101077772316,
          -1.3122771993355884,
          -0.7181849748755422,
          0.0008921056811845221,
          0.7199850585378177,
          0.5986316176508112,
          -0.23150369167914422,
          -0.2654175080407536,
          0.14308782779964901,
          -0.21987091880806658,
          0.11465213122734594,
          -1.4484447754326977
        ],
        [
          0.22915436526964839,
          -0.10129565136243052,
          0.0020940664855195225,
          -0.11893976614717663,
          -0.2399922170033084,
          1.1489382619264121,
          -1.0819005485011097,
          -1.2662934618403021,
          0.9329642074731002,
          0.2976497932002943,
          0.03166440053154484,
          -0.278079111511405,
          -0.133898107135816,
          -0.17654083789488417,
          1.2926212328036677,
          0.5242080419507487,
          -0.0831078463577363,
          0.1971528296850034,
          -0.022661763137783817,
          -0.6171848325827269,
          -0.4843789780909899,
          -1.555636602760454,
          -1.045459204349481,
          -0.1297955383707228,
          -0.45853071098581427,
          -0.2057738613609989,
          -0.3406140729676708,
          -1.0990242890866784,
          -0.25096226135959093,
          0.8027223288787881,
          0.19937996709704053,
          -1.1117363443915322
        ],
        [
          0.3885957498013384,
          -0.9523135355196007,
          0.22287491468060047,
          0.2189644743907274,
          -0.892389139928477,
          -0.11353215819338072,
          0.3898179544800414,
          1.4071303867132614,
          -1.6127648028751669,
          -0.3215892802572846,
          0.09130149689957397,
          0.30304891316635296,
          -0.1739985714174105,
          0.20054873529031741,
          -0.45072933595864323,
          -0.25281921557805753,
          -0.16244531745103544,
          0.02312643271851789,
          -0.13623574548486525,
          -0.3373735368730066,
          -0.23130194689213784,
          1.0728504140086814,
          1.027271681142999,
          -0.13769216534006118,
          0.8760102951714407,
          1.0551217630891834,
          0.37410715908174075,
          0.999527206843651,
          -0.03504614145413209,
          -1.0864302443186655,
          -0.099253353082227,
          0.328618195409893
        ],
        [
          0.23563313422630092,
          -0.805452582517745,
          -0.11641623159531689,
          -0.0597996212881589,
          -0.5477358840435411,
          0.33502769148808476,
          0.609310191784734,
          0.518544663983816,
          -1.5303070002083652,
          -0.1961127350632174,
          -0.04258081335702462,
          0.5431792343392486,
          -0.1582872982403204,
          0.07656444253546556,
          0.31159120525811584,
          -0.2863381531025819,
          -0.2398183447700766,
          -0.3066748822224114,
          0.1652803361193899,
          -0.3825324602052185,
          -0.14667570585205109,
          0.9730297976671247,
          0.6437881052043157,
          0.0584933822298205,
          0.16689991519944344,
          0.43353129386659306,
          -0.16040354180078453,
          0.8820672813918103,
          -0.1547553517070124,
          -0.7706200662209595,
          0.10221497052687614,
          0.2045066317656253
        ],
        [
          -0.2746384636493648,
          -0.6026235814245312,
          -0.1380498406890059,
          -0.6102401748082696,
          0.04254029302382265,
          -0.7547321586711443,
          -0.15187692209888856,
          -0.7846733943178811,
          -1.2577654780499783,
          0.27996028825979075,
          -0.46464350467482957,
          -0.5571198562710936,
          -0.20994824945987142,
          -0.2478762715617451,
          -0.33332535319027873,
          -1.0545665519298577,
          -0.16761084619387587,
          -0.13397408070875905,
          0.8592966894478368,
          -0.25978879227879537,
          -0.3701001557373697,
          0.4817770283909641,
          -0.004592218071424568,
          0.07619971895108411,
          -0.8302527087358686,
          -0.9733993386452207,
          -0.21280146826445395,
          0.17798979969792958,
          -0.37666910589901054,
          -0.4905721087204236,
          -0.19683176905841895,
          0.16298117972900045
        ],
        [
          0.09415941852984508,
          0.35829684939815587,
          -0.14103075747753072,
          1.0524049513251217,
          0.37387334951286977,
          -0.2842747007589398,
          0.6151844945228269,
          -0.4659238102902358,
          -1.4967522500307184,
          -0.1733155269465591,
          -0.0002579441164261378,
          0.46240228434412856,
          0.03744038561721074,
          -0.1862863045333547,
          0.3133349638183346,
          -0.8413987706214255,
          -0.036799169895332044,
          -0.0722635558886884,
          -0.6323364292236603,
          0.3629454853366773,
          -0.2319713013817611,
          0.7067301508656895,
          0.3997188861114167,
          0.26669913786861305,
          -1.2994918141242884,
          -0.8308066882757426,
          -0.0552638275796074,
          -0.4808133238404598,
          0.19805021696172626,
          -0.03385559519706944,
          0.335162674364545,
          0.7778952457670071
        ],
        [
          0.02891755852019881,
          -0.8776807101868653,
          -0.1986472321481314,
          -1.2991908413564484,
          -0.7998251684567846,
          0.4760598141085185,
          -0.624389371995533,
          -0.025475812141664337,
          1.1260113799094655,
          -0.10783828572205248,
          -0.08387444133364669,
          0.0036208389033005254,
          -0.3120877972380174,
          -0.2298004088922057,
          0.3250166961277981,
          0.8353407615811731,
          -0.28020856583839476,
          -0.11451335184017183,
          0.23568496211077078,
          -1.2825251708175327,
          0.3582350762432131,
          -1.8671536362008287,
          -1.2037687292759274,
          -0.2131184307457398,
          1.0407562014362919,
          0.786438238948081,
          -0.17039867643505072,
          -0.06911095527431259,
          0.2438030135618342,
          0.00806486129035123,
          -0.12883787984782735,
          -1.7460549288441174
        ],
        [
          0.25049058764978965,
          -0.4305330788164449,
          -0.19789210459431014,
          -0.1695591337462424,
          -0.8284726484214783,
          0.5307714153997977,
          -0.7316037791701686,
          -0.16026966402720666,
          0.7824067354041683,
          -0.02448782485477819,
          0.37860130048980706,
          0.48690313557634013,
          -0.097416464378887,
          0.026541304036590895,
          0.4365118861511366,
          0.3966150659073972,
          -0.18400400879826576,
          -0.13924492077852674,
          -0.40205755743209093,
          -1.1840736957329867,
          0.12273905939919763,
          -1.1778138592655223,
          -1.1222001108037485,
          0.20541055548513268,
          0.43659755837393194,
          0.9137459648235255,
          0.3347521902902935,
          -0.8509011838131554,
          -0.12102104601398005,
          0.09353502970177607,
          0.34712208099444214,
          -1.491569035758073
        ],
        [
          -0.2790489978102371,
          1.0824041604163417,
          -0.2550646526029037,
          0.7180807045289128,
          1.2296316219833128,
          -0.23982144915383044,
          -0.11111810221786353,
          -1.3170970448215293,
          -0.6162799538891377,
          -0.028346695460380534,
          0.016768530226221108,
          0.1778960850037561,
          -0.1331713328225945,
          0.040618707446313296,
          -0.017563563803281525,
          -0.7431298038974331,
          -0.005233750235912332,
          0.3046748100387087,
          -0.19955690077670327,
          0.8897921786156219,
          -0.04264901329350348,
          0.2127164244459492,
          -0.5401200270936302,
          -0.1746365276914918,
          -1.3981615211061102,
          -1.593536579444342,
          0.2437880600671431,
          -0.7250643391979633,
          -0.27225325058526895,
          1.1381094544233479,
          -0.1900394176127031,
          0.8175709846737993
        ],
        [
          -0.03610050640151485,
          -0.46473857306524813,
          -0.20236739136393989,
          0.3929134126765161,
          0.010282468268366226,
          -0.4761703700451834,
          0.7558929349276939,
          0.009284998312935668,
          -1.5607987452400691,
          0.06992431146213929,
          0.05769637082649632,
          0.40410087470180717,
          0.12278824217910742,
          -0.2666408674552006,
          0.09126354761501544,
          -1.0627256324346008,
          0.0730204421865645,
          -0.11249290490513567,
          0.3663676533567387,
          0.35748429452047414,
          -0.7589365032491686,
          0.8559570737169312,
          0.7413249449268368,
          0.13239666047051296,
          -0.9369044534297993,
          -0.5650706462877585,
          -0.3659111912706082,
          0.05391256833419445,
          -0.23521284091552838,
          -0.5764131776026293,
          0.3287484337284831,
          0.2525233915749418
        ],
        [
          -0.3218551273022753,
          -0.11007900763353012,
          -0.237910326728976,
          -0.5434810181706092,
          -0.19949086223330784,
          0.28412141514071043,
          -0.897819074560741,
          -1.4386335081174468,
          1.0332799304003932,
          0.0009951741285465982,
          -0.20955253389500444,
          -0.844949369870519,
          0.1719812027637328,
          0.1517542048081049,
          0.6471049757901924,
          0.16017904749870687,
          -0.17365704729591386,
          -0.06625653980021477,
          0.10047544219173132,
          -0.662141073812174,
          0.0020523056777993405,
          -1.531439392772465,
          -1.4867626238766143,
          -0.0002998701106801217,
          -1.0104103131184987,
          -0.5212930280655904,
          -0.34015520320363557,
          -1.1904781046041522,
          -0.021081605430424796,
          0.7759607525632783,
          0.09865670705004635,
          -0.9728864326067538
        ],
        [
          0.15410750948613572,
          -0.8841921720219074,
          -0.006912145509709499,
          -1.272854684508645,
          -1.3635016497317558,
          0.6267209444276274,
          -0.9679313837712155,
          0.7543958806196707,
          1.0669179855191395,
          -0.3047139428053595,
          0.20305781880261178,
          -0.15725848027167658,
          -0.3128465897455662,
          0.1312390831253132,
          -0.10519395085922127,
          1.103486940446743,
          -0.07561348530840488,
          -0.3037750292176197,
          0.198158462189111,
          -1.457486104692327,
          0.42236152988624387,
          -1.5106205792528793,
          -1.1995276067310094,
          -0.34644273152494637,
          0.6144061517047152,
          1.1482183204026843,
          0.16974018429746765,
          0.3544585599652885,
          -0.15344813776963043,
          -0.44465195505523986,
          0.13041908749224762,
          -2.0316836673555025
        ],
        [
          0.17608861939735254,
          -0.23591342881955688,
          -0.05497864982082929,
          0.17101608625823353,
          -0.6035850286464735,
          0.18547228050554954,
          -0.3966971635978309,
          0.2081754644607346,
          -0.174510889658385,
          0.09223484430044604,
          -0.10715048864733219,
          0.36325283547106707,
          -0.24782076756154525,
          -0.17365045652166572,
          0.07296704854257047,
          0.3778300793481895,
          0.13441265937740224,
          -0.04937123207250244,
          -0.04474209551608184,
          -0.6970874439691819,
          -0.07140624936346847,
          -0.5056755111207273,
          -0.15664272886861214,
          -0.024134472171953355,
          0.2707761765780777,
          0.5409670958114025,
          0.1843593274592618,
          -0.24842955603437092,
          0.01813593880147624,
          -0.35993391866071367,
          0.2546022018624742,
          -0.581081599229335
        ],
        [
          -0.3137449184611163,
          -1.1292763582401726,
          0.03760922560072934,
          -1.3839650982963019,
          -1.135604571535741,
          0.18454557345090386,
          -0.7667706848064655,
          0.2726507773345482,
          0.3155144315236886,
          0.12084373886781569,
          -0.36716008301544073,
          -0.6479013150599328,
          -0.16615452199806058,
          -0.14445326839903797,
          -0.13140481126062045,
          0.5845174113364469,
          -0.26694992524306693,
          -0.019610290462795863,
          0.14895548577711631,
          -1.5068715307016851,
          -0.0712410711681436,
          -0.909426216608497,
          -0.9127130541174676,
          -0.34600347989022323,
          0.6320110838830856,
          0.14296711044514374,
          0.05710095642116757,
          0.12140981366384417,
          0.03926719841737075,
          -0.41081032290754643,
          -0.06798156948945115,
          -1.4305617839265388
        ],
        [
          -0.10187380095839454,
          0.5633630645501172,
          -0.11047551023083745,
          0.9755223301897709,
          1.0403380064280248,
          -0.6101993001890396,
          0.24475842714358437,
          -1.3192743312682425,
          -0.8191367071206359,
          -0.0007067899345444351,
          -0.4363902953705867,
          -0.07528671498561808,
          -0.08849217732974095,
          -0.02127731619944768,
          -0.6029411716548214,
          -1.2040485351072638,
          -0.17210396127659183,
          0.23743802791665097,
          0.03342567096955397,
          0.7432122367928062,
          -0.10684658251899334,
          0.4148523747765458,
          -0.5012658780092346,
          -0.24572109944609416,
          -1.343652729589512,
          -1.9551057175529833,
          -0.09366196432369504,
          -0.5416057562725233,
          -0.25807468650841625,
          0.9576073549863005,
          0.18297339186996325,
          1.3366570450000046
        ],
        [
          -0.03056389937314318,
          -1.31359197326212,
          -0.20708937086781612,
          -0.03330629751615031,
          -1.3085872516149823,
          0.019399805304138124,
          0.33064849677457087,
          1.6309967642634833,
          -0.650415923684949,
          -0.18411329788518585,
          0.26150341632290747,
          0.26286385515383076,
          -0.2805149190372304,
          -0.07715338050939514,
          0.3946485718367651,
          0.2703435302716348,
          0.09081260800328136,
          -0.06139243762386353,
          -0.4035391024122868,
          -1.112621394323415,
          0.12062029675265017,
          0.4386453511061473,
          0.7158496552733097,
          0.14774954968443788,
          0.9304288715688793,
          1.2979758438767843,
          0.29329013240407237,
          0.6974153926824264,
          0.3013744431883964,
          -1.2251456288426144,
          0.1748269462231465,
          -0.5311099710955435
        ],
        [
          0.1516199182542169,
          0.7626628043518694,
          0.07071960157702374,
          0.30332400220712774,
          0.4411937019582102,
          0.7846083153621513,
          -1.0621311350450686,
          -0.4471657820364617,
          2.0083659452922094,
          -0.16482289464828814,
          -0.353165089347572,
          0.23149935227304416,
          -0.23531720165251171,
          0.1958673823964927,
          0.09729186117499747,
          1.1880727097422805,
          -0.005468930487080597,
          -0.020744594128432423,
          -1.4564685824640276,
          -0.709474224179368,
          0.43279774882133554,
          -1.8254688623372881,
          -0.9503162063438396,
          0.17409687845539853,
          -0.7097556976217746,
          -0.5030341103293838,
          0.497200156052816,
          -0.9988031670479883,
          0.13704951305699117,
          1.4267876223188862,
          0.20100130592769838,
          -0.763124351104006
        ],
        [
          -0.03476482578645979,
          -0.7667846865761951,
          -0.04465713748910988,
          -0.7115705300739849,
          -0.8737550134653951,
          0.0629478604516123,
          -0.43770496601316716,
          0.4853204147134367,
          0.14512017827349355,
          0.09289442974028463,
          -0.16599831672329965,
          -0.3447482803088503,
          -0.013788725099010309,
          -0.28130043477115735,
          0.08785945299018025,
          0.17141003285672443,
          -0.13716613778661518,
          -0.011836880607100931,
          0.1038885307770941,
          -1.0630554974294153,
          0.05038794612741835,
          -0.38618128691206133,
          -0.39877887856898403,
          0.09373989654351614,
          0.5221907929313768,
          0.09197516196651591,
          -0.07864893899594252,
          0.13557956115390327,
          -0.029805760561119644,
          -0.3148076131282129,
          -0.3345996941108672,
          -0.9103522159944983
        ],
        [
          -0.6521356198838908,
          -0.9622661804480123,
          0.14923404461359374,
          -1.2050367584909465,
          -0.7703823043160848,
          -0.9246712921927582,
          -0.35013503269806767,
          0.5245792287863777,
          0.5844420341264908,
          0.19221839735482604,
          -0.5648077748429966,
          -0.9900546082876192,
          0.054628187430611826,
          -0.034797719518177485,
          -0.7764420228799743,
          -0.20910206117256505,
          -0.1073833742058848,
          0.1635538759071656,
          0.7162408434306592,
          -0.654310835195886,
          0.4799451063250558,
          -0.27615668671481863,
          -0.811486845937137,
          -0.025164804527008828,
          1.2311864804315586,
          0.5373311397413806,
          0.17509588669267104,
          0.5332376945198218,
          -0.10733095187182781,
          -0.2427778015128318,
          -0.02763426956755224,
          -1.090394045037388
        ],
        [
          0.600607900279635,
          0.24803335405257912,
          0.17564207552457212,
          1.3277388381493413,
          0.31744216865710556,
          0.48025982087678265,
          0.4807672736297525,
          0.08399508136788074,
          -1.028040493195324,
          -0.265628800852289,
          0.46662276776806283,
          1.2180812419763174,
          0.14541383770023128,
          -0.023853014754570002,
          0.28059377992504,
          0.035582975050609825,
          -0.043142538993244064,
          -0.24158817860849197,
          -1.1073366191741536,
          0.49828985238439294,
          -0.23097923980762564,
          0.7834402832335662,
          0.5981954005752761,
          0.17984636908484034,
          -0.880112392643248,
          -0.10275292447577773,
          0.0879426736225898,
          -0.46719876771909297,
          0.15915411651115108,
          -0.13839904677681467,
          0.35173675293202133,
          0.7375397126805004
        ],
        [
          -0.40107917273254157,
          -0.15222873564077669,
          -0.2880425807602563,
          -0.8526302088910352,
          -0.22861525747634479,
          -1.2374161656830551,
          -0.027120696264973255,
          -0.4815217463730598,
          -0.8809080083399609,
          0.3606887200273767,
          -0.25350606891329003,
          -1.0548882277255267,
          0.09274165487470615,
          -0.011567736752813826,
          -0.7533849077163883,
          -0.7540779143213376,
          -0.2741823940145801,
          -0.158976790720583,
          1.0703425238052477,
          0.17405435803235372,
          0.0224983776972741,
          0.2578440131948574,
          -0.3719573007521823,
          0.01930585505234995,
          -0.3637378832131442,
          -1.0338254589786833,
          -0.3197098969429086,
          -0.04014099451405914,
          -0.4027359572048277,
          -0.4195447548054989,
          -0.5084710721822603,
          0.1178913924568132
        ],
        [
          0.0704220849685228,
          0.30636045937407225,
          0.11287227805082478,
          -0.21346549023854836,
          -0.0012422989660980364,
          0.12043474507822015,
          -0.797711476551639,
          -0.202859425574512,
          0.641777536960318,
          0.16055064997685825,
          -0.24282686797039235,
          -0.4071484342578117,
          0.2006183605760202,
          0.18354095046427146,
          -0.34534169077015436,
          0.30869876686523906,
          0.0847660334217009,
          0.06118335351368068,
          -0.47738464855848495,
          -0.6140045249192572,
          0.4622777668868395,
          -0.5786965849621589,
          -0.9668930232702098,
          -0.12174771944372369,
          0.019292697889905095,
          -0.5262747061736871,
          0.07964421134789373,
          -0.8832895899300174,
          -0.006570155701541067,
          0.703041613279968,
          0.10309262824722219,
          -0.4157280624460587
        ],
        [
          0.02553210668493669,
          -0.6001141585748304,
          0.17517474910031602,
          -0.4893369715187819,
          -0.6828361603962292,
          0.3028269514709039,
          -0.5052635254150563,
          -0.16371074720577605,
          0.5313743270830819,
          0.2634305376361683,
          -0.3105812269315521,
          -0.411629872109787,
          -0.0863654796024265,
          -0.01398812290859384,
          0.15165371504786207,
          0.14342460765201934,
          0.030705261639137116,
          -0.22602823845339995,
          0.0871808708375409,
          -0.8285588124265277,
          0.11276497778868907,
          -0.8508705263150612,
          -1.1401819754898537,
          -0.13014389185283337,
          0.381701125853515,
          0.2560729082348389,
          -0.25500562533258775,
          -0.46617578004528554,
          -0.22367177811518313,
          0.299503564027316,
          0.03800258603730574,
          -0.8920950918302597
        ],
        [
          -0.08898902270380032,
          0.7609545844094189,
          0.17026943915823356,
          0.9730545952818409,
          0.8933662296546239,
          0.1662479657297939,
          -0.17242500622208126,
          -0.9879225528751017,
          0.039684593765627475,
          -0.2965511281943113,
          -0.2496695562168702,
          0.4282693310801945,
          -0.021276397199130315,
          -0.060865652647525366,
          0.4320581701677954,
          -0.06897610860892549,
          0.21316411101839045,
          0.019952536921113203,
          -0.48802670886591915,
          0.34376674822253095,
          0.09740153761267249,
          -0.5428610457109344,
          -0.7709729161866266,
          -0.16368492481742777,
          -1.2979008181095757,
          -1.3831320899640407,
          0.03979604460677201,
          -1.0875493406660461,
          0.1670723304993488,
          1.4392505671571425,
          -0.10301954394057375,
          -0.053963758842047765
        ],
        [
          -0.5546060547541044,
          -0.36281957596139003,
          -0.05723901038581366,
          -0.7026171443996273,
          -0.007378526211247926,
          -1.4484190473081546,
          0.3672823588471018,
          0.0677169644679407,
          -1.187186345341273,
          0.2468535199253747,
          -0.08078392283462567,
          -0.8336427949760908,
          -0.2682862086698971,
          -0.23019232798062456,
          -0.9236766391142198,
          -1.1789686419147511,
          -0.4572063137815514,
          -0.14187317245677303,
          0.8790452364312117,
          -0.30106063791571097,
          0.026362345287725103,
          0.9589717475266092,
          -0.03359413515815514,
          -0.1036114521984709,
          -0.5150626457733991,
          -0.6081650563222124,
          -0.00176147323529213,
          0.4662873190435571,
          -0.3382800078911871,
          -0.3850156940366173,
          -0.409319844046746,
          0.5098347077654937
        ],
        [
          -0.2056081140946947,
          0.02019010803980774,
          -0.2059406826137872,
          -0.5845214567067761,
          0.35948285255691037,
          -0.9243337383343322,
          0.1001687271080737,
          -0.5389548042496858,
          -1.3422104118505507,
          0.30125235750365453,
          -0.3594372797427205,
          -0.978263403150379,
          0.21474001134868387,
          -0.28806426340834707,
          -0.5472602644352585,
          -1.218174115961731,
          -0.0669358101987683,
          -0.024197661208020842,
          0.9070945235973742,
          0.19950784071800626,
          -0.39333578093925026,
          0.8080757276455613,
          0.030662751071285882,
          -0.19834648156558937,
          -1.0695873687700943,
          -0.8960752209192808,
          -0.2006094899718137,
          0.06265667863178796,
          0.06739055614136001,
          -0.531132621130589,
          -0.03459229801967909,
          0.24290226393722197
        ],
        [
          0.2048553820844888,
          1.3633144512365687,
          -0.29128585451390154,
          0.677762290005159,
          1.6192210476463091,
          -0.4615792833219347,
          -0.34408753867093356,
          -1.286723859975122,
          -0.579179072825905,
          -0.19423824764875555,
          -0.06941562630757808,
          0.018975576755206693,
          -0.20076645333825402,
          -0.22349583839904336,
          -0.3421321142001506,
          -0.6754138331166447,
          0.2683137846722018,
          -0.0037420287851651834,
          -0.386684475353394,
          1.0286263372795095,
          0.1249163992038985,
          0.2396138104843602,
          -0.5247093695883124,
          0.1638693269583892,
          -1.2494287707983025,
          -1.5894760773981937,
          0.20298634966204682,
          -0.8855936780240581,
          -0.22632719589656397,
          1.1179522228725478,
          -0.22484293005725078,
          1.1444293898976172
        ],
        [
          -0.4698012598507821,
          0.9878264077825009,
          0.04254938181611674,
          -0.17656821049572902,
          0.38373280310442665,
          -0.8806577612725229,
          -0.34987011698962467,
          -0.2678351745043849,
          0.5913683811662659,
          -0.2946216881130756,
          -0.47877236792428535,
          -0.766464331289419,
          -0.22578070786023097,
          -0.22011487726495696,
          -0.8580630462813597,
          -0.042314569010384405,
          -0.12014481913019553,
          0.043534200322350954,
          -0.5640048850481734,
          0.14055654365098125,
          0.4381127221890776,
          -0.29289688193725455,
          -1.1464000413871946,
          -0.12034967726682165,
          -0.6043471994200542,
          -1.0986552665224458,
          0.19433847583949507,
          -0.8127549043823696,
          -0.039658580410555984,
          1.1243959930440484,
          -0.07264210055522353,
          0.16460916908866405
        ],
        [
          0.10847545208093291,
          0.8106210233059524,
          0.11191037568809792,
          0.2658010037221891,
          0.7854090653254705,
          0.003610365489909101,
          -0.5299517850192847,
          -1.234712136205353,
          0.2233255005052784,
          0.21956818375008186,
          -0.19977613212426684,
          -0.231429430526449,
          0.00989762247206679,
          -0.19773651706010684,
          0.3940631448760038,
          -0.6672153005262563,
          0.061117542797077457,
          0.16924083466646467,
          0.18713298234072068,
          0.3494059497528363,
          -0.39237773690418365,
          -0.4310420263905643,
          -0.8964832873137686,
          -0.04683646679408795,
          -1.5126965341731167,
          -1.3629023641291362,
          -0.30190737365702625,
          -0.5842725084220124,
          -0.04666758636936206,
          0.8640967729536152,
          -0.003578899977263426,
          -0.1279713880150506
        ],
        [
          0.19014471012557208,
          -0.5223526389659874,
          0.16903220210682415,
          -0.3351483005882013,
          -0.8195433129562533,
          0.4967601670678756,
          -0.12358689448546484,
          0.05563560871652792,
          0.5201023362341757,
          -0.09814156832114664,
          0.1503321704467106,
          0.16179100004159408,
          0.06959800530631023,
          -0.12737218916827656,
          0.15814688379967629,
          0.4148249598570509,
          -0.05920139601082202,
          -0.09661092113969846,
          -0.20881814091561626,
          -1.1139340310003683,
          0.09100820688259936,
          -0.5324313539518126,
          -0.3441876230135696,
          -0.01755922407585109,
          0.4989141588427539,
          0.6203809896436299,
          -0.1343108551110247,
          -0.11830063941734237,
          0.20429757859573483,
          -0.13441116702265565,
          -0.10461822676431408,
          -0.9342096436811651
        ],
        [
          -0.31991745626230494,
          0.5187903951074462,
          -0.35479544897041093,
          -0.4785177226971309,
          0.9014711064830283,
          -0.9540847082942044,
          -0.6803024364994648,
          -1.8097547300386352,
          -0.018502322776898728,
          0.4939504773539208,
          -0.1973303459487337,
          -1.0349546626145136,
          0.17779550447878575,
          -0.1020663253972997,
          -0.3036651446300775,
          -1.056609868835908,
          -0.34293917762233767,
          0.25397839501066094,
          0.6957444002254737,
          0.19267419512095524,
          -0.21620125809876625,
          -0.6276819176280649,
          -1.6211746121656998,
          0.15850579126913983,
          -1.5445307726709427,
          -1.8560112403960607,
          -0.17632965539985865,
          -0.8632935938454968,
          -0.23863454566084594,
          0.7854624886876576,
          -0.2546179658151134,
          0.2365610316940757
        ],
        [
          0.040326776014269664,
          -0.9168773899267584,
          0.09015921548169373,
          -0.8145082473409546,
          -0.9033746633432501,
          0.9143058038860307,
          -0.3537200287360032,
          0.5912288774174976,
          1.0512071805010033,
          -0.02858127832649414,
          0.011078333591138237,
          0.18844918650158637,
          0.0003136761874833684,
          -0.06594392996158434,
          0.3341948871117717,
          0.9621662534897112,
          0.18857253497637083,
          0.007278051174594643,
          -0.2862418706396466,
          -1.3335008665705175,
          0.2528540429757597,
          -1.4666221907235535,
          -0.526642949182895,
          0.04335851929944557,
          1.0403213623497138,
          1.2213585518793422,
          0.1669960187453699,
          -0.3963300172248948,
          -0.11334596290874425,
          -0.32241687167607996,
          0.18240398251749582,
          -1.3683785893035245
        ],
        [
          -0.03145981542207732,
          -0.06122654140880818,
          -0.19044425069611287,
          0.9090909666635992,
          0.15889748575280843,
          -0.851292095785742,
          0.46853370175344944,
          0.20961456042105633,
          -2.8952145654549226,
          0.2197680112374108,
          0.31168494783876277,
          0.5713107608443116,
          0.018863265702839773,
          0.01671428907663171,
          -0.314201652220321,
          -1.6766961577299198,
          -0.22549623873720223,
          0.03457457897149818,
          0.5595916892820213,
          0.1535631521968698,
          -0.8266836173672443,
          1.4830540210666485,
          0.5662838194679937,
          -0.17871411582520472,
          -0.9479544650458053,
          -0.5054427440542623,
          -0.5754289413871657,
          0.38933194647208375,
          -0.39879152671472207,
          -0.9908347045937017,
          -0.0891638483781781,
          0.9978421296845449
        ],
        [
          -0.2787343394606301,
          -0.057230739867603915,
          -0.07623148882723028,
          -0.14172153470340845,
          -0.025051343072173042,
          -0.30325858085965995,
          -0.6195138353236358,
          -0.8102145639545972,
          0.34333773709795146,
          -0.044547533133522756,
          -0.186387880275599,
          -0.2126757270995307,
          -0.26172097941621375,
          -0.10800795952857761,
          0.006402499178736281,
          -0.2847960669071418,
          -0.040267573323105384,
          -0.26081535665309835,
          -0.04396116141325132,
          -0.13018254613146302,
          -0.22108302303795585,
          -0.5333186870092763,
          -0.8602321046492565,
          -0.07429773084721784,
          -0.8664976207561068,
          -0.8148944629594517,
          0.051746600661891386,
          -0.7896274042815411,
          -0.19354527997491627,
          0.702199095604255,
          0.08585067878580656,
          -0.2101400050813633
        ],
        [
          -0.4027753741234416,
          -0.03983653441668352,
          -0.04922988018053355,
          -0.17445420847691262,
          0.15730581453238926,
          -1.3684900213724442,
          0.3114101816802172,
          0.19323121735989224,
          -1.3542757364107927,
          -0.1114578635903628,
          -0.2479721206163752,
          -0.36881866889179465,
          -0.15327851579698482,
          -0.030085537085606726,
          -1.0185875169386336,
          -1.0552786796597733,
          -0.30425434017509967,
          -0.18973829869406378,
          0.5117065241695288,
          -0.03359708583982874,
          0.08307164181073004,
          0.6809476720642627,
          0.25605063388349714,
          -0.29341539511762843,
          -0.9157964348728704,
          -0.911549587032317,
          -0.12765882063147707,
          0.4823730298114278,
          -0.06007564893382306,
          -0.23876463790146243,
          -0.13602778850764677,
          0.5353128860163663
        ],
        [
          -0.11863061777616359,
          -0.11028247749000629,
          -0.21835011042346816,
          -0.3838547175475265,
          -0.05807356810301004,
          0.16245290316582145,
          -0.6636638144126656,
          -0.52043865748168,
          0.04789731688909626,
          0.21573637404575682,
          -0.12277753094284573,
          -0.19371782233789225,
          -0.2558651573649829,
          -0.14443440510217803,
          0.2780849002876233,
          -0.34961352102074134,
          -0.22132333213473396,
          -0.10680905185214831,
          0.6013752478788773,
          -0.5809218676120091,
          -0.09506735253594943,
          -0.31710245568222456,
          -0.6749026449493276,
          -0.16174490130260818,
          -0.372779015121509,
          -0.003191802456174463,
          -0.0457527285326345,
          -0.3816221947530689,
          -0.22140902929630926,
          -0.21859567593696763,
          0.045018137428992716,
          -0.7587243265956356
        ],
        [
          -0.06213167077453736,
          -0.36120519608246776,
          -0.270548810514407,
          -1.0427585674050488,
          -0.8247259532348368,
          0.13142989127506785,
          -0.6015272756129786,
          -0.24223744614199583,
          0.8509138102513827,
          0.293256362657211,
          -0.1514749636320287,
          -0.37895166300987604,
          -0.26981883855837446,
          0.05647492638636757,
          0.04428477901125585,
          0.15381630252545914,
          -0.23395917268703162,
          0.20971361039788622,
          0.5745080649507363,
          -1.2195181731643463,
          -0.013883983133612944,
          -1.4609734125040412,
          -1.1913624774761236,
          0.02521142694505601,
          0.5934508642550831,
          0.08478693230792908,
          -0.28555526298955963,
          -0.2662217025546048,
          -0.09460682035386192,
          0.1148436389627613,
          -0.3558785128502525,
          -1.4488827127833739
        ],
        [
          0.1290325369776437,
          -0.2992461508547758,
          -0.20647638473423657,
          0.7354006767088447,
          -0.08080225253456547,
          -0.45823522524691657,
          0.8705495672965093,
          1.1660949046610556,
          -1.6640336556033046,
          -0.298039992083765,
          0.13072234776820507,
          0.7852568559853192,
          -0.14534078189386512,
          0.06615357498788933,
          -0.843610552687322,
          -0.2387860355861626,
          0.013348234023885736,
          -0.15210128731930062,
          -0.2839672113825447,
          0.22121622241255884,
          0.0848897421742933,
          1.3917323061832139,
          0.8022134701844138,
          0.16258214305390267,
          0.0808139100835377,
          0.2799690768021298,
          0.4857662346652326,
          0.6502745880222561,
          -0.08259063617144936,
          -0.4119529335987961,
          0.1671064625325572,
          0.8283975746067251
        ],
        [
          -0.06428819293489452,
          -0.645380351256959,
          0.14895473992556288,
          -0.16666779573628288,
          -0.4246796141012627,
          -1.2487338480906434,
          0.5671176451665493,
          0.26437310837362243,
          -1.4876085301434654,
          0.21933875562678487,
          -0.2745697932384344,
          -0.24439879850128607,
          0.03382592991947009,
          -0.2794771449388248,
          -0.8735394474964817,
          -1.225011111331417,
          -0.12458811544630757,
          0.19495042157337444,
          0.8497905240070975,
          0.035431897626919194,
          -0.3700427676122518,
          1.1827549913290136,
          0.4509211609663368,
          0.05733511761115311,
          -0.20491653989505193,
          0.25970189965557794,
          -0.21127542962780832,
          0.5387698841350349,
          -0.24106239082531805,
          -0.9554546721462965,
          0.12806366450384116,
          0.39880004481876485
        ],
        [
          0.11877752981103627,
          -0.49510045538612146,
          -0.17831846556621003,
          -0.45821897562591746,
          -0.7024068585166927,
          0.11498205723445248,
          -0.7345324971058043,
          0.5256035621512697,
          0.6539668763561366,
          -0.2415036150066337,
          0.11551530304762402,
          -0.20641913199542167,
          -0.19901383548014975,
          -0.10497517322816201,
          0.034467118293831076,
          0.574021293700174,
          0.023801854891752693,
          -0.29212481796218476,
          0.03141393841312144,
          -1.21564408622375,
          0.2925925848250403,
          -0.7146806375841833,
          -0.41594888097792826,
          -0.28126312346240284,
          0.4898364063960554,
          0.6242381416495992,
          0.037992335332775046,
          0.17052778242239458,
          0.03133997230546249,
          -0.07966813431129167,
          -0.028077010127611327,
          -1.221083227210872
        ],
        [
          0.12956421475800162,
          0.34392245030185725,
          -0.1413871612339228,
          1.0553451121720743,
          0.4835749670770706,
          -1.088936998511673,
          0.5905732298901204,
          0.2539374251288514,
          -2.0662229416150426,
          -0.019271914380825234,
          0.23865870725240634,
          0.3309281319790233,
          -0.06080338422870787,
          -0.06588017137962321,
          -0.7390401879186357,
          -1.0842769767156906,
          0.19095297854110438,
          -0.24311571397787554,
          -0.688086623021788,
          0.09664729947463843,
          -0.0478877088291665,
          1.4748755650070675,
          0.6585785440149152,
          -0.10989865511148345,
          -1.64965242397944,
          -1.0877130684909138,
          0.18306800722773395,
          -0.08988367356870004,
          0.07521137795089064,
          -0.3543488969567486,
          0.153773917619599,
          1.199711733306426
        ],
        [
          0.06482702603226004,
          -0.3026620763636684,
          0.10866114949183009,
          -0.5305140073169691,
          -0.15495532391954456,
          0.003924861512908245,
          -0.28527277719854455,
          -1.056743255034823,
          0.05970930364973006,
          0.4393154478702079,
          -0.25373905407378083,
          -0.6151464727551331,
          0.1369099086563346,
          -0.2147379234233156,
          0.04123011542054517,
          -0.25923927152823184,
          -0.34852268928766456,
          -0.13386721809286636,
          0.5492054579442448,
          -0.671115405935786,
          -0.4993829701612278,
          -0.3782248886991389,
          -0.9864891467192977,
          -0.031758645245983055,
          -0.738081017284743,
          -0.5444142169811742,
          -0.25802347052131785,
          -0.7148389232260035,
          -0.11356612000490883,
          0.4083062967518383,
          -0.13101238905679075,
          -0.5506968557307524
        ],
        [
          -0.014530900767425959,
          -0.28635084988375786,
          -0.1491074709471518,
          -0.7695528961735232,
          -0.7196645106094981,
          0.10659061358142209,
          -1.1545737903649722,
          -0.4646337738128242,
          1.0174620426614784,
          -0.16238048470196972,
          -0.24151672687431758,
          -0.44517097518878546,
          -0.1539261051549012,
          0.039876327432741665,
          0.2789504484229277,
          0.5761200079609065,
          -0.05302407955515425,
          0.16561027987255633,
          0.44357489489368457,
          -1.2241390092221736,
          0.44913184963920133,
          -1.5022140421286734,
          -1.1411367016464466,
          -0.14343145086957032,
          0.6323817741869998,
          0.09911693024793819,
          -0.11986735938048805,
          -0.6985535726768791,
          -0.22176362732847715,
          0.5890098559180589,
          -0.2113735507319411,
          -1.3860861296602687
        ]
      ]
    },
    {
      "activation": 0,
      "biases": [
        -0.1151422936098145,
        0.042098973584239134,
        0.1019757167726158,
        0.22092686638573078,
        0.2964827775590987,
        0.11127827278598047,
        -0.2453910555319211,
        -0.19608285978067683,
        -0.07533119399025193,
        -0.12173434657792698,
        -0.07440760831420379,
        -0.0338470646078006,
        -0.03937905181110479,
        0.05493200213164694,
        -0.034529307488325514,
        0.019494453460682657,
        0.2092157130926941,
        0.06588406304900961,
        -0.2801304768952055,
        -0.12246859759934814,
        0.1819901008140605,
        0.08366757555878275,
        0.2419438241959113,
        0.6282784888269434,
        -0.06970730767058288,
        -0.17094006600607667,
        -0.052227822049905864,
        -0.03355788283642931,
        -0.07767702382137928,
        -0.17037521965521182,
        -0.19892265971005973,
        0.26910907781599736,
        0.08131811173173463,
        0.4741113933246429,
        -0.1764042277933809,
        -0.174622380961224,
        -0.00958595438333724,
        -0.1326642831822144,
        -0.16006543033606643,
        0.04963981598991395,
        0.026495227901903656,
        -0.006839778014952178,
        -0.007062001797081603,
        0.11071454902999474,
        0.3309090118692785,
        0.26968110631126824,
        0.1139051820551833,
        -0.13428720780423095,
        0.20055236746715638,
        0.345003950030583,
        0.14456871469360907,
        0.14981628966131352,
        -0.1034552859649577,
        0.38281852852088527,
        0.1437808850490849,
        0.35217840392136307,
        0.031252530846096166,
        -0.009733100584080421,
        0.10042369400820553,
        0.1458307135807332,
        0.34729928276385347,
        0.48237774743135575,
        -0.11420215957172221,
        -0.122724326707835,
        -0.23213674297905337,
        0.03311826784176532,
        -0.17330810975547842,
        -0.05438894411998101,
        0.08107715984036178,
        0.07283768998553487,
        -0.011182547918842536,
        0.09240003127548373,
        0.3378490633401161,
        0.07078044519800807,
        0.05764134374833878,
        -0.12525894005131075,
        -0.2430881580434903,
        0.12561098509602484,
        0.501239419888791,
        -0.0019831538633803,
        0.013055202541238481,
        0.16516792467834293,
        -0.17617730571444098,
        0.14737334364811105,
        -0.046736003963935305,
        -0.19314656053641854,
        -0.17327151862101645,
        0.11353327210911122,
        0.030741631219368314,
        -0.17449596506897566,
        -0.06349838888003967,
        -0.11226433010796386,
        -0.07871068250743248,
        -0.04470666688518482,
        -0.02201862704346714,
        -0.15386468310997511,
        0.06410306991511774,
        0.04736240730713161,
        -0.013973021468870434,
        0.11501403128626167,
        0.2838715220398907,
        0.03998983542367115,
        -0.05049607518097635,
        -0.03610989150185503,
        -0.09517367482601256,
        0.10950465588703118,
        0.42145104398052374,
        0.2663450113352669,
        0.09599612095896541,
        0.15510003690826027,
        0.06143367690983492,
        0.2251358201197847,
        0.06640607922036215,
        0.011335251799291162,
        -0.41452385899818955,
        0.17484784395078876,
        0.0895931328769986,
        0.49142025656701827,
        -0.12161193808457094,
        -0.12281660141169518,
        -0.13955118133376834,
        -0.09385734976624319,
        -0.1508285249714232,
        -0.2486465403046812,
        -0.13163972642643063,
        0.004336543200871243,
        -0.053035526989535973,
        0.28161933389863103,
        0.28935619654725103,
        -0.05380586137114787,
        -0.1938294390178983,
        0.12005652519359024,
        -0.3080078621572177,
        0.08225848536182118,
        -0.0020797279646103503,
        0.18708525423438477,
        -0.02986435637770323,
        -0.16472320142479802,
        0.10415348629846102,
        0.01796041734740816,
        0.4853977253589174,
        -0.04634198864137631,
        -0.16490746851830412,
        -0.10139678357529162,
        -0.3982258562829807,
        -0.2222715412806964,
        0.07968873926463375,
        0.2562237854323292,
        0.049622952596725306,
        0.04518523399172413,
        -0.15461443443633385,
        -0.11558224058114945,
        -0.12802062806191505,
        0.22587662078476986,
        -0.326884379372613,
        -0.21205471254935532,
        0.18820864860707778,
        0.23424655373711878,
        0.08496546856551535,
        -0.16877982771960715,
        0.08552989912133664,
        0.0028025229487716108,
        0.11710495190599413,
        0.14552447287579834,
        0.3334956115453311,
        0.24761026167174144,
        0.11886106547437753,
        0.19014481258340465,
        0.3816654968256719,
        0.29569208806848907,
        0.22355509537975968,
        0.09178599102392297,
        -0.14934615865031792,
        -0.21722942497102168,
        -0.12552048052990475,
        -0.041958101646091046,
        0.2807911458600353,
        0.23854242848194646,
        -0.09017564481642602,
        -0.21232601280922317,
        -0.2334803712611786,
        0.26530206474296586,
        0.23420247482396558,
        0.048138020370647044,
        0.29746662754953146,
        -0.2787400078044044,
        -0.2841673607715359
      ],
      "cols": 187,
      "rows": 32,
      "weights": [
        [
          0.18897078545247764,
          -0.03363497583532584,
          0.02888523381480715,
          -0.031130353459426954,
          0.39912033902335325,
          0.14747517247569825,
          0.0017145644666485488,
          -0.008113809311947016,
          0.08885354164179045,
          -0.034638564986641945,
          0.024143218147849792,
          0.31035672734661185,
          0.11139551979208409,
          0.01585034773352598,
          -0.16792795754967893,
          -0.02031495267272734,
          0.03990517722583732,
          0.21392382619749983,
          -0.11647334305175501,
          -0.19854974371357814,
          0.07653060195256782,
          0.29743067288623837,
          -0.10144921408383677,
          0.5225099015080854,
          -0.26784060835088513,
          -0.18770061992990794,
          0.13681600855921672,
          0.0885290756070672,
          0.10739499552214479,
          -0.07522096913513457,
          -0.07358733154171515,
          0.4987560501886163,
          0.1783169446138532,
          0.31079052064268303,
          0.012741211680692133,
          -0.3098351699776141,
          -0.10454586181948812,
          -0.0668883452580596,
          -0.14980713010794763,
          -0.07387759772756039,
          -0.02525378359212453,
          0.11335232179832591,
          -0.039331906777485444,
          0.12188957235155985,
          0.10251916028325128,
          0.0625355638947095,
          0.12735623905368626,
          0.3704374060674313,
          -0.02682334334130622,
          -0.059059307144360015,
          0.21276801397286144,
          -0.03684966977686817,
          -0.09703676183396327,
          -0.0708786735614059,
          0.026746402338009727,
          -0.17779174729231237,
          -0.07094275131003076,
          -0.0412486084088741,
          0.1292931785916182,
          0.1560418249454794,
          0.32375643295006973,
          0.3133182454424532,
          0.1849138023256468,
          0.03861442924662331,
          -0.0611461288777465,
          0.1270788292661225,
          0.15867574298477566,
          -0.05024475093792576,
          -0.09894467678988392,
          -0.0020304845789132667,
          0.12775780966818626,
          0.032178778476272395,
          -0.11160186652455835,
          0.13330118643886302,
          -0.08861726155971533,
          0.15097698630260722,
          -0.12393663157681863,
          0.31658460200547894,
          -0.18403520630466372,
          -0.40648412715193805,
          0.20007458731000044,
          0.2569453362954739,
          0.079757776315836,
          0.15188420799724472,
          0.03823808279268428,
          0.08158250710289255,
          -0.11030440502446996,
          0.2647941842614128,
          -0.02286494938958842,
          -0.17778163917602666,
          -0.06410740013801267,
          0.1440014918423003,
          -0.3306881432389013,
          0.037261088611858915,
          -0.05654254348503547,
          -0.03208509876387265,
          -0.04217505901423091,
          -0.053366457439812956,
          0.005526469141724427,
          0.09364820192872375,
          0.023520346261120487,
          0.13480916857562902,
          0.24755693323257255,
          0.11693965584412278,
          0.02267910233140896,
          0.031235315221572257,
          0.3980955030831344,
          0.17348910905853648,
          0.3425460074626731,
          0.03652942748889008,
          0.2648279407831953,
          -0.21376345399146657,
          0.004714178316841026,
          -0.038380248504748145,
          -0.002365241750180111,
          -0.07705335802355426,
          -0.3746248190059459,
          0.2849908559824029,
          0.07891122179675844,
          -0.07759039374343805,
          0.012824942788698,
          -0.27495819264605736,
          -0.02023284803159974,
          -0.02609614803635766,
          0.021781910320956877,
          -0.04680776894964624,
          0.03716196763401446,
          -0.16782988004100097,
          0.22655744385345675,
          0.20809259360947216,
          0.14168048796989638,
          0.29615427862767624,
          0.08544928979374775,
          0.22459965977601384,
          0.0671999172190437,
          -0.32366217040658707,
          -0.22810138956038212,
          -0.06454149325569199,
          0.1810952385235661,
          -0.04840164816181209,
          0.2337492941216875,
          0.05697344304258733,
          0.11733930350244452,
          -0.08342640000016668,
          -0.03101219304907011,
          -0.14114852398084915,
          -0.044643388205338995,
          0.13073811584711126,
          0.13285606726913718,
          0.1843998743156656,
          0.14759987525316595,
          0.021166825677712126,
          -0.07110779803284903,
          0.07699939127004561,
          0.1350069067610915,
          -0.03631555421910187,
          -0.038316899611510635,
          -0.06734986737314004,
          -0.14982483030110533,
          0.1403416668020748,
          0.08848835929575756,
          0.23940134416483574,
          -0.03310462681960662,
          -0.23674542144889293,
          -0.060813480051008346,
          -0.0019416742924536197,
          0.11857308736000102,
          -0.058174484228209145,
          0.2884976178435985,
          0.26903230788858606,
          0.1552807134075225,
          0.1532176783689189,
          -0.1288482284621826,
          0.06407169018022846,
          -0.018065122771414845,
          0.04633173469620208,
          -0.03481185823608857,
          -0.03480520719336492,
          0.025857313658454936,
          0.15684611528214742,
          0.05325428647184476,
          -0.14130973486374862,
          0.20430141342261507,
          -0.362759696652006,
          -0.05619601252605488,
          0.08746210747903246,
          -0.15514453888819751
        ],
        [
          -0.05193162165381542,
          -0.26864690112669554,
          -0.8623012621166487,
          -0.13185591735069394,
          0.1176277328909504,
          -0.8428764817644131,
          0.1639607347413787,
          0.18914929096551633,
          0.14269964351112052,
          0.32458433120970986,
          -0.020638146493433585,
          0.16077563227586472,
          -0.0045879713764737,
          0.011317169698571163,
          0.02571304204186544,
          -0.01518973423016689,
          0.5986487308169159,
          0.4353806373260277,
          0.45362591186129914,
          0.09073304885941398,
          -0.2337007433213899,
          0.03606534214474497,
          0.42036466604082495,
          -0.7831889988138291,
          0.5874281267805541,
          0.0736362517744981,
          0.032833975550139616,
          0.22719596097399658,
          0.15901836529471608,
          0.18299089700292928,
          0.4715291388963895,
          -0.20541041391073736,
          -0.1868847534707549,
          0.08045919111984245,
          0.032772402168929494,
          0.05964724277553407,
          -0.2892228001025881,
          0.07510373342882314,
          -0.01503778535249782,
          -0.2396638600215511,
          -0.02247972262174874,
          -0.010389238828313904,
          -0.05682137793166573,
          -0.07490900854933769,
          0.25828083938642565,
          0.09737370183043027,
          -0.4715151193408696,
          0.5816271620013743,
          0.06792977732202587,
          -0.08725821179646738,
          1.1479018581846108,
          -0.23064135671312105,
          0.22105218864856277,
          -0.26958929463957043,
          0.2897788802606648,
          -0.12160008779821455,
          -0.2570891342590043,
          -0.23585386919655793,
          -0.5015892820865417,
          0.6025286383030091,
          0.6812015822944778,
          -0.5534299069353686,
          -0.2493651848928166,
          -0.252520202538654,
          -0.28628193101858895,
          0.7395448525975837,
          0.1853552356212866,
          -0.22926216342586223,
          -0.00973130817324036,
          0.05623357544587212,
          0.05910769115719979,
          -0.11520099403317174,
          0.19473463440576505,
          0.07666107430968265,
          0.07674116959972369,
          -0.19631314638784303,
          0.3683844926725861,
          -0.410292224960639,
          0.05751317362314797,
          0.08424310043761107,
          -0.6624476770274865,
          -0.1315573181746227,
          0.23215662081675903,
          0.09977439940355805,
          0.1660804227318403,
          0.19069710568697737,
          0.10527402020059431,
          -0.28748887829016617,
          0.53972211243024,
          0.20154219584292038,
          0.11630690451967378,
          -0.10811658738366069,
          -0.34252489973432815,
          -0.3108008351132691,
          -0.3169899565415617,
          -0.13302596986500503,
          -0.02329470862683746,
          -0.005628157245859802,
          -0.04307871489446678,
          -0.12731995164309096,
          0.003995523447491521,
          0.2664564307551482,
          0.707433486675056,
          0.3821840028794328,
          0.26318310913582355,
          -0.6727948572583579,
          0.5877980758287019,
          1.051852085674465,
          0.40649285327716606,
          -0.5681764250906288,
          1.02389065165255,
          -0.35210389196977404,
          0.40007461420681506,
          0.22512253237630986,
          0.4679163955309345,
          0.2700453392280235,
          -0.05617896226674221,
          0.3456233943315111,
          0.2908414205888149,
          -0.11117873145281944,
          -0.08176502829117627,
          0.10349579821659279,
          0.10825668340223112,
          -0.1696774727658318,
          0.0028997744040365767,
          -0.0036429590702398767,
          -0.0639394401700457,
          -0.1723914908385556,
          0.3533638580796665,
          0.16190839911462593,
          0.4094554462612104,
          -0.26690723872293176,
          0.6981908009568109,
          0.31214108888618497,
          -0.2475139983476338,
          0.09214907681462577,
          -0.49717881880571163,
          0.7630038962031302,
          -0.026272354008910783,
          0.19443880241796982,
          -0.08694268850806783,
          -0.039281468542074746,
          0.1732763261068544,
          0.09055380329570084,
          -0.18954140427135915,
          -0.09105023827080491,
          -0.5878243481965526,
          0.32148171941264975,
          -0.29557739645761993,
          0.33964984607177945,
          0.15873699059599355,
