{
  "layers": [
    {
      "activation": 1,
      "biases": [
        0.486161311080634,
        0.10864895726116312,
        0.09838562465396723,
        0.08858896901047057,
        0.1652787097498691,
        0.11912674045200172,
        0.01581508974371833,
        0.48168999015663505,
        0.046951075649357035,
        0.34266217709651015,
        -0.12949882126699858,
        -0.015389330257247019,
        0.3018733410982141,
        -0.40200852320187297,
        -0.04630209693402148,
        0.16316536095027395,
        0.49365575088123453,
        0.02790419882304971,
        0.6517230109248631,
        -0.0020394982913663727,
        0.40051460731168337,
        0.37378992595157107,
        -0.1908610558479249,
        0.5028035724773339,
        0.01287737781377087,
        0.08654817641563177,
        -0.16358487546512585,
        0.03861987282550654,
        0.38705035314798725,
        0.11107390355603855,
        0.9357605370150348,
        0.17449307470211278,
        0.25472986123349645,
        0.07904363188643464,
        0.07026461724335435,
        0.05277751154803001,
        0.4091780940473846,
        0.3228266975902744,
        -0.46809480789176133,
        0.1869883792758663,
        0.3389485401916453,
        -0.45762243816164394,
        0.3208575412826066,
        0.09361901670957251,
        -0.1096663378896209,
        -0.06652299495201539,
        0.050307850153151666,
        -0.1687644769073924,
        0.032529061985831095,
        0.421719892711906,
        0.4247772501549691,
        -0.4030344117120645,
        0.642228210768086,
        0.6187927968896323,
        0.5097726446028517,
        -0.09881506538850558,
        0.15999891605178718,
        0.029642030966464054,
        0.27977186610585636,
        0.21128886548763967,
        0.10177208972993464,
        0.1807902738800713,
        0.3079597329115483,
        0.2913515776154163
      ],
      "cols": 64,
      "rows": 8,
      "weights": [
        [
          0.6466735545046661,
          0.059693857043098784,
          0.10806623054200827,
          -0.8056301982754395,
          0.7106684181529812,
          -0.3440266511597607,
          0.446151150569207,
          0.7736705275556979,
          0.09591182764064256,
          -0.8051800369590629,
          0.7288998811204541,
          -0.40985502721514694,
          0.48895502782088873,
          0.6203242819991395,
          0.09476186786270757,
          1.0035781458617783,
          -0.8563058872494103,
          0.8219305625027903,
          -1.0994465100641673,
          0.5446464054620624,
          -0.9836994154034147,
          0.8600724296010297,
          0.9596107452342558,
          1.0965950150028978,
          -0.5037819715319727,
          1.3329487341712054,
          0.139679332704579,
          0.507565382917974,
          -0.9316772874430336,
          -0.7169146438695608,
          -1.0946204642279584,
          -0.8784558703649321,
          0.5499441112658578,
          -0.3584342699806295,
          0.5746694559439197,
          -0.7530421462730361,
          0.9583815295041161,
          0.4960976680564896,
          0.9935821182450025,
          -1.0132008169469577,
          0.9310892551507899,
          -0.11873548203237637,
          -0.8795098164943933,
          0.2353032310143957,
          -0.9787724941670434,
          -0.09895322401330929,
          -0.29642671573529317,
          0.1195313116389406,
          -0.6520364350313699,
          0.9563371292238465,
          0.7713953090943684,
          1.2178474698901447,
          -0.8226764343807068,
          -0.8099928033437206,
          -0.32012587710877677,
          0.9389512207940587,
          -0.834060282826991,
          0.13386388441743838,
          0.4363333803719344,
          -0.47621976883412154,
          0.42804302877996186,
          0.7705899778556464,
          -0.8533635899186521,
          0.2761445224490351
        ],
        [
          1.9248994519696967,
          0.47125598583906664,
          0.7796488889192109,
          -0.27750010553022875,
          0.40303098971686274,
          -0.09575257542349833,
          -0.14695027156656762,
          -0.4316200410577276,
          -0.17801376791644574,
          -1.2108264944615075,
          0.434208366528867,
          -0.3047835090912885,
          0.7419334968065098,
          1.0876623544782251,
          -1.4869322678373875,
          0.31102493314931695,
          0.5320977751334527,
          1.3274716210620636,
          0.6960713363076424,
          0.5694852731064114,
          0.4528514840299422,
          -0.2246752139665049,
          0.19892012358812108,
          2.259167218699638,
          -0.3046690509920146,
          -0.4312892052838074,
          -1.0037317935432029,
          -0.21216831450066753,
          -0.12489090729457382,
          -0.5004265631292576,
          -0.03133827948977052,
          1.2521285121442034,
          1.1584559037966504,
          -0.5333278300142013,
          -0.09033185276552333,
          -0.6739223279738993,
          -0.11910207702503246,
          -1.1326690011106437,
          0.965500966143387,
          -0.991472377254263,
          0.07751945089653821,
          -1.3913689954927795,
          1.9540346256656058,
          1.4287499853153838,
          -0.3720535330304703,
          -2.4516568270503694,
          -0.9203561011346013,
          0.11341948551810985,
          -1.0215018186885252,
          1.8134313298874811,
          0.30125906536373054,
          0.5508448488869935,
          -0.5831267091815133,
          -0.8606429827024282,
          0.6424673789168935,
          0.44220240660361015,
          -0.7001076541506502,
          0.7989414607642679,
          0.9322567734151945,
          1.1705426252971265,
          0.18192649247812354,
          0.9564036453491702,
          0.22295520584700515,
          0.46232360102322667
        ],
        [
          -1.294645399241755,
          2.328290249116769,
          0.46629707716751284,
          1.8676387327344688,
          0.4345491168465425,
          -0.31835735122364167,
          -0.2977702847994106,
          -0.9145132456374512,
          -0.7695633143882912,
          1.5989133562722182,
          0.35127709601287277,
          -0.6733488263992004,
          -1.1911009216189243,
          0.15087518613687917,
          -1.802795037664258,
          -0.31341907910960964,
          -1.9009679186793014,
          -1.271992409514592,
          -1.3608388919678347,
          -0.011604384425615262,
          -0.14774223295092637,
          -0.5121971454403502,
          -0.2899671892629044,
          -1.7988984811132862,
          -0.5743129784423919,
          1.5474508067931347,
          1.5265298876381115,
          0.8347272616314261,
          -0.34269977529223095,
          1.9465287306154786,
          -0.41470977959362015,
          -0.21201033693730134,
          2.3529050782158083,
          0.7496363952402406,
          0.6081436170192709,
          -0.7823828740245689,
          1.0030255556634442,
          -1.9446023071947667,
          -0.03179741276371858,
          0.7897564511716569,
          -0.8584469416376126,
          1.5854453689489485,
          -1.1027740302222544,
          -0.3397129634410014,
          -2.1962962925009464,
          -3.399926581801775,
          0.3545865060816049,
          1.3385958823449238,
          1.5363193930017747,
          -1.327205949860893,
          -0.17785317612954593,
          0.674365324982449,
          0.4176926085480363,
          1.517797034742706,
          -0.6651335600509691,
          0.020880783203387838,
          0.03851942858036984,
          0.500363642913106,
          2.217977403743866,
          0.016724526602884652,
          -0.6618200799526505,
          1.5005093970853471,
          -0.16144846588084816,
          -0.9091382283356524
        ],
        [
          0.23021092084405892,
          -0.7632202330258141,
          0.19096840995254086,
          -0.7859618935500698,
          0.7152556894382639,
          -0.691486642444224,
          0.6146781053067157,
          1.3341255016541183,
          0.08342884457843104,
          -0.2794528080477442,
          0.7005493611784382,
          0.19122126391032682,
          0.24470865741749515,
          0.6382437943104773,
          1.129462047721053,
          1.2507350296199589,
          -0.9406708557059597,
          0.5651401912117173,
          -1.1269514085354861,
          0.4089339520413116,
          -1.3799824866087502,
          1.227066919647011,
          0.8264051882681392,
          0.4184585273372263,
          -0.6085962277037515,
          2.1848004119358753,
          0.4282029912315196,
          -0.07120171124945028,
          -1.7156120653798557,
          -0.7629195277356366,
          -1.133214169533202,
          -1.4451490895578833,
          -0.07057364386120667,
          -0.6765289355642936,
          0.4769199592668809,
          -0.06666806485533924,
          0.4971148318043216,
          0.6872418569867326,
          1.0983720833965678,
          -0.5325579417092602,
          1.382717820347761,
          0.03776462220059782,
          -1.5056550209924098,
          -0.39641793381642,
          -0.2846259737776453,
          0.9677818991627437,
          -0.2280866041011687,
          0.6021975498090941,
          -0.29965506630492494,
          0.4183644923343698,
          0.476229380438011,
          1.4368262228064614,
          -0.9261467659641175,
          -1.0506246822475496,
          -1.074168649140256,
          1.073742680309355,
          -0.7303203067720689,
          -0.21959541042081504,
          -0.5714824387688351,
          -0.9063123501617443,
          0.8584136440468267,
          0.11017992732162739,
          -0.9021345407251973,
          0.6806282714011018
        ],
        [
          -0.7811472420772448,
          -0.8789061657593384,
          -0.6269403036043119,
          0.5420371479156789,
          -0.6498749408358064,
          -0.37254254360401806,
          0.007324126758869932,
          0.32434749572021,
          0.2986019779843668,
          0.972272355322645,
          -1.0133142156322308,
          0.46484578678610194,
          -0.5130320958922399,
          -1.4740152260093013,
          0.6990814824586818,
          -0.4621423265028105,
          0.5997736837837249,
          -0.7376679977988743,
          0.8535829196803306,
          -0.40233521046195264,
          0.23367487259002057,
          0.08757608434446995,
          -0.40629361754684945,
          -0.7998934830936059,
          0.3416267842036658,
          -0.2697716792281893,
          -0.03141503036038319,
          -0.41070876697644915,
          0.3880292880112479,
          0.05544872796093775,
          0.9716001024720002,
          -0.38265749938573707,
          -0.6006691752911796,
          -0.20520504476675439,
          -0.7327127905395386,
          0.9194713064793476,
          -0.44312451268460085,
          0.9257482099433391,
          -1.0745329473836869,
          1.1216316465486444,
          -0.12765263018230097,
          0.4883640694799707,
          -0.464005420350982,
          -0.6634771904863266,
          0.91304668257719,
          1.5137431898877898,
          0.3593449442126945,
          -0.5781178696724515,
          0.5121132198867894,
          -1.1289544493701407,
          -0.21858042342116465,
          -1.2378625346017376,
          1.1220237321821251,
          0.940697044091298,
          -0.21195276877476796,
          -0.6783198917969334,
          0.775269877547624,
          -0.843752818809754,
          -0.8483971624696787,
          -0.5469916282546331,
          -0.36802616136246563,
          -0.3213961325975871,
          0.13598690318426404,
          -0.437389457734279
        ],
        [
          -0.42275651499067424,
          -0.7993105989440131,
          -0.5913812610103324,
          0.3708612856945954,
          -1.0843252986147192,
          -0.059699859917001434,
          0.07756497582926229,
          0.06328888724784948,
          -0.11310898746622416,
          0.9775800167665796,
          -1.01882294126448,
          0.48184063204189914,
          -0.06883379397330647,
          -1.5186504723473842,
          0.8727634075601222,
          -0.4937768993925272,
          0.9809070175980352,
          -1.0196620371117362,
          1.742247284207823,
          -0.3984222749640766,
          1.166632205642014,
          -0.04176343813415797,
          -1.1459276981670519,
          -1.17355098805439,
          0.8094099772542622,
          -1.2645173811751393,
          -0.389375357080331,
          -0.29312251568823217,
          1.5687422114486758,
          0.5251944428382964,
          1.8853224377089035,
          0.27078704766109074,
          -0.9803325457686023,
          0.009975451814039296,
          -1.189671786286094,
          0.974516775293763,
          -0.8477064075123852,
          0.9790511310706979,
          -2.051411105002614,
          1.5318803657085187,
          -0.2343539659934234,
          -0.03484908291572132,
          0.39908285018081174,
          -0.2525945540010275,
          1.6747164149888714,
          1.2415554969860925,
          0.7902014311372028,
          -0.4504390354914684,
          0.21532374397216264,
          -1.0537775354938406,
          -0.5325988386125886,
          -2.0548803438381134,
          1.9537642317276431,
          1.3228118501888568,
          0.14739813975577,
          -1.3097233060650488,
          0.7912710117655913,
          -0.6296742321262532,
          -0.6597609873630932,
          -0.5833685301873053,
          -0.26894493939867775,
          -1.2355594564397636,
          0.873730441438178,
          -0.0715393751132101
        ],
        [
          0.1491525361719451,
          0.5655315576802247,
          0.5064295621910566,
          1.1042769664000476,
          0.25048511328860695,
          0.04190827977909826,
          -0.7610489887611432,
          -1.287764201312191,
          -0.5260903853301625,
          0.9344717800025676,
          -0.21335412525370484,
          -0.05369678144836428,
          -0.5952933304503444,
          0.08099049624253046,
          -0.513803415766229,
          -0.5026604213991088,
          0.507383204718201,
          -0.6638440031617747,
          1.0138794084714242,
          0.06861291597537858,
          0.9914149850555499,
          -1.490989334326756,
          -0.6669983315352958,
          -0.35296597395040746,
          0.4872429512711569,
          -1.038281505948724,
          -0.8839153371756079,
          -0.6096202242353597,
          0.5165834415542551,
          1.1388477753602206,
          1.178157539758761,
          1.4183484637028945,
          0.7396364157068547,
          -0.46437780086085273,
          -0.13050303884013958,
          -0.27244941660689276,
          -1.1855393009764874,
          -1.7073474842673262,
          -0.6646796906610177,
          0.205212396105702,
          -0.607096922758903,
          0.07214066733312932,
          1.3895155523816005,
          0.061659676852819784,
          -0.022547168279570238,
          -2.3558081729614675,
          0.6291655844848633,
          0.9619214411089113,
          0.5592441216778447,
          -0.0931176694071064,
          -1.1386928698614553,
          -0.0995606495176034,
          0.5268642334528522,
          1.3258203648972176,
          -0.6251010660494749,
          -0.20399016031518447,
          0.01791459054258565,
          -0.07661560107747076,
          0.12625602055272553,
          0.34098290167352013,
          -0.40142670819269805,
          0.03963391633537283,
          1.0327130025763454,
          -0.2749842471603849
        ],
        [
          -0.2729963281016326,
          0.2803026886195198,
          0.2019817370216345,
          -0.08047857383880357,
          -0.025664502252332903,
          -0.09006574902768548,
          0.19340903621906547,
          -0.06052215670940146,
          -0.06376974780255851,
          0.13449914261523574,
          0.2145155234099437,
          0.17237801405507433,
          0.05908815720024818,
          0.2322217271443058,
          -0.07735166398538304,
          -0.10506150502718059,
          -0.06776659066321886,
          0.04285391589264986,
          -0.2105352070073297,
          0.21197767205488263,
          0.25015505481078376,
          -0.19201276438406162,
          -0.15741920875418328,
          0.10585104230459093,
          0.244886335513043,
          0.11336090804226087,
          -0.260269071576312,
          -0.05268831071990895,
          0.23623255018779074,
          -0.005753682564611862,
          -0.020616586499823,
          -0.28188431240690864,
          0.023874143581386304,
          -0.010960561330177036,
          0.15965067149785947,
          0.2554149219642998,
          -0.09304934076803013,
          -0.0017797591382937383,
          -0.05432162273824596,
          0.17695190347970147,
          0.15102736135806674,
          0.15426509964852847,
          -0.06371671720520951,
          0.1722591642192878,
          -0.15317844746024004,
          -0.059379007913822175,
          -0.19302456344731128,
          0.26270618496013515,
          0.2004181888040889,
          0.209757177840031,
          0.0752108729436117,
          0.06519579823352771,
          0.2783923063151288,
          -0.06705950097631716,
          0.170903175474544,
          -0.11141438239482393,
          0.2613860825381531,
          -0.022664307162936367,
          -0.09791970604787051,
          0.011024178420969989,
          0.2568257947560156,
          -0.043153065726677944,
          -0.25541736527009806,
          -0.20864325219699947
        ]
      ]
    },
    {
      "activation": 1,
      "biases": [
        0.02101896995023398,
        -0.06594245586198526,
        -0.1986793893485276,
        -0.21096850334389505,
        -0.06618414595046636,
        -0.10278981287754738,
        -0.0155091695074257,
        0.013312169904120399,
        0.054162612856978716,
        -0.162884627956236,
        -0.23236402479497842,
        0.25555604708519847,
        -0.6466036957433178,
        -0.3900076503892516,
        -0.015516462766820054,
        -0.15025921515910345,
        0.013981536561337632,
        -0.09982623912094904,
        -0.23616986263881753,
        -0.12442554684880679,
        -0.08103113083501032,
        -0.037576092798074986,
        0.09998386284896647,
        0.3279798412077341,
        0.10953483675853197,
        0.0047728171587403485,
        -0.1861023739100085,
        -0.1310580362568001,
        -0.09057595639489063,
        -0.1860804137303898,
        -0.09177156084575955,
        -0.06485522773261436
      ],
      "cols": 32,
      "rows": 64,
      "weights": [
        [
          0.09152694776150501,
          0.3132086987724084,
          0.15861857030417847,
          -0.2526093838962492,
          -0.10605358278121939,
          -0.869006022772932,
          -0.16177577192018797,
          0.2311083419284198,
          0.6860224392954443,
          -0.3522196251927301,
          -0.31607885866516894,
          0.32390251618775084,
          1.0547933630888668,
          -0.7605034164802811,
          -0.44860876925979964,
          -0.3528175812249119,
          1.094482785083096,
          -0.10029804845816494,
          -0.9274934572065072,
          -1.0970638030826467,
          -0.12000740111273758,
          0.37310004565032323,
          -0.2527722842124849,
          -0.5537513529685951,
          -0.6992400443697535,
          0.4325983531236551,
          -0.2323180228444878,
          -0.412178469778211,
          -0.13281165702661074,
          -0.006495387089023891,
          0.34290516089628514,
          -0.16248922483309028
        ],
        [
          -0.09948590767487198,
          -0.8197522025939792,
          -1.0374042759533273,
          -0.14879181178289913,
          -0.052038275935587866,
          1.084637416395988,
          -0.19107068526912485,
          -0.08280527059587667,
          0.4050757555228187,
          0.21853177327941253,
          0.2483071911687529,
          1.3775802070172347,
          -0.5678404513426002,
          1.154233764001405,
          -0.11350498283866647,
          -0.9850836770298358,
          -0.19141917780445997,
          0.07416917415443598,
          -0.45388953607766325,
          0.13765090308844868,
          -0.09109541399494124,
          -0.4478653729934252,
          0.10972986848794289,
          -0.3653916516024119,
          -0.17943519296674243,
          -0.2259598866916052,
          0.006717923999785203,
          -0.2523825162094097,
          0.17117201144326494,
          -0.02028820505037691,
          -0.14107721581665925,
          -0.3246244837331991
        ],
        [
          0.05041230619103139,
          -0.4159183515181754,
          -0.18654752898557583,
          -0.16605015600579764,
          0.021898419042089456,
          0.309080076485383,
          0.06132464576583318,
          -0.06366314337818157,
          0.4661488942120992,
          -0.3080525686026231,
          -0.13354489983634824,
          0.9285471237657142,
          -0.16278927988688524,
          -0.030402235285160218,
          -0.2025346381401068,
          -0.39053508093877193,
          0.27024596174386106,
          -0.019046221823207296,
          -0.4049456840580527,
          -0.5437661807689446,
          0.12768576228405493,
          0.02521581619309188,
          -0.21347143679820962,
          -0.7091434497013408,
          -0.22330629320513157,
          -0.007256466561675888,
          -0.0403374701239072,
          -0.19501146617945217,
          -0.13502561433052357,
          0.1750508473625262,
          -0.08621219859335558,
          -0.15210859240714528
        ],
        [
          -0.15440098627876125,
          -0.06412424044757448,
          -0.8182530849732808,
          0.6989548648796988,
          -0.17128596271133203,
          0.3967654170778894,
          -0.15997484700949055,
          0.21154660244910942,
          -0.13693819192888979,
          -0.14252973909839847,
          -0.47036395717364493,
          0.45541470218241525,
          -1.9327202312220153,
          0.9554696081268315,
          0.20102435132774235,
          -0.5293112996419317,
          -0.28165924324309277,
          -0.17724828016997773,
          -0.22894406728317285,
          0.03833401986837384,
          -0.13073388823071336,
          -0.1325771559361548,
          0.05696556176430994,
          0.7374295469420107,
          0.13450220674296937,
          -0.2615583397188388,
          -0.3059251344510145,
          -0.01344598450505073,
          0.21408419292797123,
          0.16220430369340863,
          -0.6302785219035446,
          0.22423869723965068
        ],
        [
          0.07675533765143433,
          -0.6887500908130457,
          -0.34980590661598676,
          -0.40549073355337456,
          0.12188190140801577,
          0.5031107775062552,
          0.22550911749262326,
          -0.17201274132911146,
          0.32813934825688706,
          -0.2271825482578088,
          0.21653199128941703,
          0.9561024537239202,
          0.17089284969567253,
          -0.9288776309755539,
          0.1506172064217624,
          -0.42626336081252153,
          0.13377709939976062,
          0.14659612425716328,
          -0.5685046741455477,
          -0.32015979926979277,
          -0.11011455113509376,
          0.035703508715320076,
          -0.1311167012619138,
          -0.7697655732296608,
          0.035179363031358116,
          0.32971029373378113,
          0.28366055199272516,
          -0.3211104560574511,
          0.013151724992275281,
          -0.3098345737501848,
          0.13773523279843228,
          -0.4178744756419704
        ],
        [
          -0.3849183304280976,
          0.28435224883026433,
          -0.36088149431127986,
          -0.24381801073011794,
          -0.25341906098695854,
          -0.4095794527889473,
          0.16649833798965946,
          0.014249184530864002,
          -0.034894931723854085,
          -0.13346733515888182,
          -0.38943654377564346,
          -0.08579416096383319,
          -0.0742214139840376,
          0.10110332182673554,
          -0.10852089493618772,
          -0.3994057119934599,
          0.5240729541291492,
          -0.19826528374278457,
          0.21365581969828745,
          0.1820299916597455,
          0.027407431182613576,
          0.05406637631578262,
          -0.2239473678569611,
          -0.028402890151060612,
          -0.10176912046363307,
          0.0368938418330934,
          -0.16960983446925088,
          -0.29757406166325057,
          -0.09974759816396661,
          -0.017723101051692836,
          -0.07727478771908312,
          -0.08029844617297638
        ],
        [
          -0.30583625378072693,
          -0.2237581656800098,
          0.30228451917940224,
          -0.443580082980429,
          -0.08952828512745037,
          -0.1713987613243398,
          0.05514221213725596,
          0.002994350232561954,
          0.07233949510828078,
          0.033797388788448825,
          0.045502429136401804,
          -0.02333340727960155,
          0.3694815278876198,
          -0.7760320126933747,
          -0.15125013701657222,
          0.27314872972232757,
          -0.30016679687204134,
          0.03889925799787745,
          -0.10672460594686889,
          -0.4053969513833738,
          -0.1977358582090944,
          -0.2468345340074575,
          0.035091663578838146,
          0.24393135256298754,
          0.12375186981070727,
          -0.026370362504110487,
          0.029197375386260657,
          0.024590912706360844,
          0.052152733614225184,
          -0.2731085494720955,
          -0.1401482310655088,
          -0.1019311035682463
        ],
        [
          -0.01566285179054857,
          0.017158851693680862,
          0.354910849138704,
          -1.1735442978139468,
          -0.15596878257981872,
          -0.5229645110005824,
          0.20377279025695624,
          0.19372075319972928,
          0.09912943532955709,
          -0.5706487342561677,
          0.48509044362783604,
          -0.3669247228882132,
          0.5302886271146801,
          -1.6659455290952798,
          0.07478825746299343,
          0.5594557073344604,
          -0.5293141380824417,
          -0.11109847464598922,
          -0.460275122946297,
          -0.39967729212475644,
          -0.11741902269850112,
          -0.06838740434017941,
          0.2508831660218019,
          0.24410859030255103,
          0.20418747333190035,
          -0.08116494005489583,
          0.23736017194774878,
          -0.1304131387232252,
          -0.3074079645261532,
          -0.5465113241230937,
          0.03079665150620172,
          -0.12256153865472172
        ],
        [
          0.13064878299821764,
          0.331827935911266,
          0.10507166859705158,
          -0.3494341706121971,
          -0.2155421601192447,
          -0.35648375396995813,
          -0.138594932879523,
          -0.13087561210858345,
          -0.11353719624759735,
          -0.33794455568526255,
          -0.13853865582967365,
          -0.17896658537659674,
          0.10183089341532155,
          -0.5952445864959501,
          -0.04008545339918109,
          0.1669870508310491,
          0.0796102505487399,
          -0.029750388304393652,
          -0.12206092590071535,
          -0.04553097555407975,
          -0.07265164154039722,
          0.12710099438762354,
          0.22019122346944806,
          0.03542695875825044,
          0.34331532061874265,
          0.016899107409106637,
          -0.07294418657818126,
          -0.1549997881889641,
          0.16185906793535226,
          -0.4001643835629096,
          0.21168955867621123,
          0.003008392934384431
        ],
        [
          -0.1237474721477744,
          -0.05464670973893628,
          -0.45330598927330346,
          0.6765512726398353,
          -0.1402289621539511,
          0.8401357367962541,
          -0.12832959206299727,
          0.013932242102536003,
          -0.035181470635571185,
          -0.1251719993029534,
          -0.8197290031782416,
          -0.34677874569420847,
          -2.0049370708577228,
          0.5820267633227728,
          0.20305414946656952,
          -0.23197053742792734,
          -0.6290905741312393,
          0.08792819240618989,
          0.11322842891376135,
          0.37259279302790954,
          0.02246446305418054,
          -0.11270136900656297,
          0.3801141136866787,
          1.26985570107704,
          0.3827492833963094,
          -0.17632535446072387,
          -0.2895285713037676,
          0.4063064546606186,
          -0.07979292471938998,
          0.19147448782017273,
          -0.6919696137989362,
          -0.02854301666267955
        ],
        [
          -0.3388747702676132,
          -0.7748346316937019,
          -0.05340731258676756,
          -0.7049899764467172,
          -0.24315174942111012,
          0.2654419051591779,
          -0.27611208614903027,
          -0.32455114669992147,
          0.16796398075304292,
          -0.4132329434724718,
          0.4458089549572656,
          0.9614775856466555,
          0.3377852781258479,
          -0.6747919500445541,
          -0.23460785573574294,
          -0.31536866905327704,
          0.16358970018285646,
          -0.008123157703693405,
          -0.5940470267542375,
          -0.4514685270704748,
          -0.31663285581096084,
          0.04653243127412665,
          -0.09035760352009267,
          -0.9724621271013292,
          -0.16024234942534468,
          -0.15658559727107899,
          0.08273402947886282,
          0.03160758823010796,
          0.1383949177439354,
          -0.002647641534308936,
          0.1654924243339721,
          -0.07977122272631972
        ],
        [
          0.17097638004468696,
          0.20807896116477181,
          0.3601562386712044,
          -0.03781263761025487,
          -0.06252194054176011,
          -0.5665779660911358,
          -0.053742377285836106,
          -0.0620222855258197,
          -0.3652219613912098,
          0.04446633995205294,
          -0.20761180696591877,
          -0.18104818042265913,
          -0.5434212510553496,
          -0.4618176765346573,
          -0.24353238924390413,
          0.4118901644609173,
          0.277476432430256,
          0.045442889861318565,
          0.31033325943485335,
          -0.05672841605365037,
          -0.06160259792314976,
          -0.10025572900332715,
          0.08359801053505685,
          0.3140897651115727,
          0.2981086984790676,
          0.2782875727793396,
          -0.1932706194957763,
          -0.07551165361577214,
          -0.1411040493572533,
          -0.05575439525988968,
          -0.21270874806489004,
          -0.15967702794534458
        ],
        [
          -0.2627433742700508,
          0.15064344875577437,
          0.20936907684251183,
          -0.49333856247125607,
          -0.26299949732701944,
          -0.8997304065332284,
          0.018510448541284467,
          -0.16366852627911524,
          0.05138594611068319,
          -0.2742475963682006,
          0.11578023452385862,
          0.02263043338218804,
          0.9416922415306053,
          -0.7468456851193115,
          -0.19125491856113835,
          0.05330396036409551,
          0.6648122313653948,
          -0.01780506382971587,
          -0.5117617235792012,
          -0.6012612874284965,
          -0.1003756736406158,
          -0.12578488998265866,
          -0.07477631750233704,
          0.04112133802511097,
          -0.22088841434573603,
          0.22066741851796978,
          0.19996045390148282,
          -0.23220119714289528,
          0.12817939902571732,
          -0.12495003962406183,
          0.2301020213270378,
          -0.14379112844306063
        ],
        [
          -0.1824092202476225,
          -0.9916013802277605,
          -0.3688254431542452,
          -0.6823340587152043,
          -0.17438651711775396,
          0.04938457915267268,
          -0.230720213012049,
          -0.19730391320825386,
          0.30169875285770065,
          -0.11194432920165308,
          0.4914107406989076,
          1.4121678601629233,
          0.81974663540383,
          -0.7376258739575724,
          -0.1008304436037582,
          -0.6324796205354655,
          0.6914031098527983,
          0.1235406746028803,
          -0.6746524069813937,
          -0.5438257140134473,
          -0.0052577970207157015,
          -0.045158910030260575,
          -0.2632701258459741,
          -1.419471880533118,
          -0.24779804439546982,
          0.1925449383245757,
          0.3495784237990542,
          -0.0890590859216824,
          0.11945532363312204,
          -0.032269473394342586,
          0.03528132037775235,
          0.05043588381721645
        ],
        [
          0.0447817390195081,
          0.25165009283873313,
          0.8606648086444074,
          -0.2584582317147926,
          -0.13385149971673713,
          -0.8754393995470691,
          0.08761508306989679,
          0.30200624226566014,
          -0.4820157431699221,
          -0.11448885188027115,
          -0.430679070937913,
          -0.9370994618982793,
          -0.2765481456715861,
          -1.844617317829234,
          -0.08604191589037463,
          0.8655289689098563,
          -0.17340721515550866,
          -0.22024741458263558,
          0.6796232224141167,
          0.0330335183406182,
          0.14458200772626492,
          0.1730525759346159,
          0.2104598210226831,
          0.8071507230445149,
          0.1613512193873539,
          -0.18605054972778018,
          0.021828927271081943,
          0.299402902086626,
          -0.254040957763448,
          -0.2080506088277275,
          -0.09933291945966562,
          -0.03576326225236209
        ],
        [
          0.13420748525032433,
          -0.5332564283021501,
          0.4003777380931588,
          -0.9691226613469766,
          0.1639120187552444,
          -0.27552333439972204,
          0.07075415018820305,
          -0.060779203076061966,
          0.09688552860907998,
          -0.5652561167651547,
          0.05136657829459254,
          0.7395922116858122,
          0.680740755170637,
          -1.3082588668794652,
          -0.1312916376143052,
          0.3696540455567565,
          -0.1534157275567026,
          0.10400657581198279,
          -0.5326543326398341,
          -0.6902283941473917,
          -0.16158670737448877,
          -0.1514579635873206,
          0.15583121611247086,
          -0.518827530004889,
          -0.10691164630422847,
          0.24148716424157965,
          0.03819008182261489,
          -0.10900941827058616,
          -0.2507627725723612,
          -0.055114783206294315,
          -0.03496049473750793,
          -0.23116493172725958
        ],
        [
          0.3737549314180162,
          0.9701683120287049,
          -0.06611257777240832,
          0.5946062225614338,
          0.19465684137892802,
          -1.5779746945569992,
          0.03892819792023034,
          0.10773387222411525,
          0.2673430940100222,
          -0.16579095245734915,
          -1.053504901181728,
          -1.0694079533680227,
          -0.6273606926467128,
          -0.3056852456598214,
          -0.1353607606125848,
          0.39806357212060767,
          1.3401316954517424,
          -0.32971608547250064,
          0.26044977060720936,
          -0.38205466724769505,
          -0.11365003723699627,
          0.3569831393415324,
          -0.05153677631360227,
          0.9307645781953926,
          0.1485799773567995,
          0.38723969723290247,
          -0.18742911325243056,
          -0.012557233217176875,
          0.129649775557621,
          0.18708443759523363,
          0.24764576253587775,
          -0.11022437024632994
        ],
        [
          -0.10741619245844516,
          -0.20974986307418095,
          0.510665844788091,
          -1.1255268852182347,
          -0.27207103759666657,
          -0.755985338453577,
          -0.07186195499086741,
          0.15502580526159146,
          0.6209373980459075,
          -0.4019556450189356,
          0.048347870257842034,
          0.7507455093809864,
          1.6491594310389577,
          -1.0041028615211212,
          -0.41543392932785916,
          -0.17607340073252892,
          0.6767532557035899,
          -0.15015581449166426,
          -0.5647891027239931,
          -0.8611738198117811,
          0.05490966392706108,
          -0.16459035281398066,
          -0.13515896826305365,
          -0.7274233301765433,
          -0.2077499530886314,
          0.4661265077707987,
          0.19637565998526088,
          -0.585869456132672,
          -0.20712705018867342,
          -0.5408898078292522,
          0.47963713596926777,
          -0.13651779089370109
        ],
        [
          0.2559968909421216,
          1.2053044173986531,
          0.13556769001557945,
          0.5040997002242931,
          0.06965959368456251,
          -1.465192844936848,
          0.08245316597017693,
          0.17166664143429497,
          -0.11400366137309685,
          0.07919849542537095,
          -1.4229869201252225,
          -1.511779982765574,
          -1.368288931779515,
          0.31214824428613647,
          -0.3671105138772707,
          0.48386395846757135,
          1.377935011443211,
          -0.18572468578403267,
          0.22415498562107256,
          -0.11444009886101786,
          0.25905767400884827,
          0.36917166932715,
          -0.04157378198606452,
          1.3989122315383578,
          -0.22531379784575295,
          0.40943151591055,
          -0.290136170923145,
          -0.08468237738093362,
          -0.06499404884943054,
          0.3086551410499393,
          0.09078965109928713,
          -0.16694003268712063
        ],
        [
          0.02891441710942818,
          -0.3804587541373621,
          0.06907239060750829,
          0.06840623493396585,
          0.09012358690424799,
          0.17992308413234173,
          -0.09244394430895311,
          0.13301021146535805,
          0.17859266848700475,
          -0.07587449938514033,
          -0.09962869640405415,
          0.6368125125482214,
          0.3401020817662339,
          -0.4876134427632307,
          -0.0847716417268765,
          0.023721398042630935,
          0.2134947675451526,
          0.15991153051598267,
          -0.4491515774612295,
          -0.3956057876628344,
          -0.16492549302639542,
          -0.12118220304465294,
          0.07594965588001291,
          -0.2910860407639604,
          -0.030532629327021114,
          0.04350401462057191,
          0.13079008156272887,
          -0.3751982490152027,
          0.001201212096017591,
          -0.27363314137288264,
          0.07332435739519146,
          -0.0256966362424965
        ],
        [
          0.18663274025602675,
          1.083022336529886,
          -0.6789610436557509,
          0.9131639571766013,
          -0.1295325011270179,
          -0.6123065789628214,
          0.10552275016567755,
          0.2706607514490016,
          0.18401274331060252,
          0.02887790212408851,
          -0.987095334123175,
          -0.4943502008319216,
          -1.2581333167356399,
          0.7539380269606921,
          -0.2935477564416637,
          -0.30253151159028596,
          0.7880393472657413,
          0.08068764424508759,
          0.3637073345872866,
          0.07592947874611347,
          0.3603129137549608,
          -0.02302379451334578,
          0.034763575649658394,
          0.6636168597687611,
          0.08768476174218617,
          0.08522122660718451,
          -0.5388804462415508,
          -0.032314290344682695,
          -0.0867266503856813,
          0.1306050599167235,
          -0.29609578849286444,
          0.33941909738193143
        ],
        [
          -0.08277187687628546,
          -0.3205448307121044,
          0.22170358329339993,
          -1.430208909004474,
          -0.061807493261545,
          -0.35517155137708073,
          0.02714447671292976,
          0.06978181891328053,
          0.023813275562205666,
          -0.48636520635126873,
          0.28345860385634614,
          -0.0655660728351731,
          0.9790539256580119,
          -1.3686909636401303,
          -0.15125363548636914,
          0.4213050202868674,
          -0.6764132766194725,
          -0.09041299078143591,
          -0.4925514200320647,
          -0.5415421850392862,
          -0.11096827470449364,
          -0.17241177176562614,
          0.26104264837848024,
          0.1247166328374678,
          0.31480995956287133,
          -0.10702298744704815,
          0.07491945561751162,
          -0.026136103604841282,
          0.15051209497443074,
          -0.6729042629013728,
          0.3483052835515931,
          -0.20142411270158234
        ],
        [
          -0.13031259880058949,
          -0.6694942559143712,
          0.3477267442729138,
          -0.6013666804629575,
          -0.05571449989177736,
          -0.016708935369078606,
          -0.2625584983506951,
          -0.043933298380203205,
          0.4222168277493687,
          -0.3700727555189293,
          0.566559063864348,
          0.9018260971342469,
          1.1270903203767428,
          -1.1837211703123398,
          -0.04212749871905649,
          0.07205424377326335,
          -0.20321814913040998,
          0.14703565371800167,
          -0.32832438736265085,
          -0.31148612467818226,
          -0.23999709304283487,
          0.0028980695756269403,
          0.2364789481327915,
          -0.42446935086344967,
          -0.2310963055176115,
          -0.12361652210401289,
          0.2976349846343603,
          -0.026077091255804603,
          0.20118293155597247,
          -0.18581566254277,
          0.34579869613919456,
          -0.21806013921645803
        ],
        [
          -0.14646230166336016,
          0.5042845582569868,
          0.2085288590785967,
          -1.1413916115690532,
          0.18451307183397916,
          -1.3171889881846057,
          -0.1797791576477535,
          -0.12001173309405089,
          0.8549695184918453,
          -0.5727354556818263,
          -0.4249920166354634,
          0.8946037154754198,
          1.5361020022174352,
          -1.390306686393077,
          -0.49217852048198096,
          -0.07304397149061499,
          1.1854888794425142,
          -0.0733888377251281,
          -0.7266337807761445,
          -1.0477352758805063,
          -0.27259625132171844,
          0.15063934741891424,
          -0.04965864057736768,
          -0.9259548832787101,
          -0.9468906337708902,
          0.6055928456063866,
          -0.046695007801183616,
          -0.5027432757262933,
          -0.05353724710550927,
          -0.07008696367964683,
          0.8918786717875318,
          -0.05462076227933327
        ],
        [
          -0.04354266950928929,
          0.6054398797788734,
          -0.09046670653825509,
          0.3267153749519255,
          -0.011328160739934411,
          -0.4484287269498606,
          -0.05344031854401813,
          -0.08725671455505173,
          -0.23468657473811463,
          0.07728824850225668,
          -0.5188225303065737,
          -0.4238835912093739,
          -0.7652399949235499,
          0.15696756005210677,
          -0.2446382120239511,
          0.241786070843296,
          0.4709444212774009,
          -0.2874430264089519,
          0.3409070211523389,
          0.0987233491640584,
          0.1523891082694505,
          -0.042761724876336206,
          0.08454281085071899,
          0.6185096609662531,
          -0.11312980492881161,
          -0.010957528862897626,
          0.0007406612751782147,
          0.25025105506911294,
          -0.012454115708369426,
          0.26994853660290963,
          -0.27108390933883514,
          0.14489979827291488
        ],
        [
          -0.10552952547122316,
          -1.5678328847133562,
          0.30313743059692705,
          -1.6242004222651258,
          -0.11641545339769689,
          0.9919797850921711,
          0.16032808762049933,
          0.018450534772166703,
          -0.10498325582103686,
          -0.6106794541048908,
          0.49312898162097724,
          1.4421856185582038,
          0.47358535080263864,
          -1.8472695103819705,
          0.2538873031314668,
          0.19585427201666916,
          -1.3556862180860656,
          0.16314248591169286,
          -0.9196496816789951,
          -0.03354251372508396,
          -0.24058706020377485,
          -0.5708110089215613,
          0.47886143424716227,
          -0.6539512362550074,
          0.13292687204788498,
          -0.21563896391598397,
          0.015504152098282343,
          -0.1903669747125552,
          -0.25551506461729334,
          -0.6026600720846306,
          -0.14363853748729494,
          -0.5100811374141268
        ],
        [
          -0.2605734455406229,
          -0.7645545801228083,
          -0.37037371946250525,
          -0.7696705069616604,
          -0.08480797746081767,
          0.9465988576804959,
          -0.3305640427990727,
          -0.4665969305950858,
          0.004300340232976524,
          -0.10359575344299814,
          0.09888669960548445,
          0.44743795456140834,
          -0.44504059004023555,
          -0.1120380646662881,
          0.18662984915944703,
          -0.02848155718660446,
          -1.1915496084102093,
          -0.07728904206703768,
          -0.02779782141819182,
          0.177522909238171,
          -0.48266328965706284,
          -0.4686608735159404,
          0.17217364177435165,
          0.0559291930150847,
          0.12860852115973162,
          -0.5163629569653164,
          0.20951204633234166,
          0.17071195363287678,
          -0.2774851781646836,
          -0.30251616492571815,
          -0.38397447339897817,
          -0.0028929225162120987
        ],
        [
          -0.3799889509352304,
          -0.22720089449510086,
          -0.16321558948442386,
          -0.6614549572495559,
          0.11239709404874323,
          0.42443705951528954,
          0.052176464326646486,
          -0.19106118197652228,
          0.05221585615268191,
          -0.11321453380259262,
          0.24973480264487408,
          0.7798673747693762,
          0.11039308532824778,
          0.13468963060841013,
          0.031885667176173985,
          -0.041448230570214836,
          -0.5093127032038502,
          -0.16894394530348458,
          -0.11904257236177168,
          -0.000500891658841999,
          -0.32381538830670853,
          -0.33287860196283803,
          0.060568625095228056,
          0.16020844216057278,
          -0.03600230386166321,
          -0.008226589270766832,
          -0.055208061255508756,
          -0.26039922630582535,
          -0.09505201522329049,
          -0.2504590610463483,
          -0.09733031524773754,
          -0.06220314066670864
        ],
        [
          0.0505430640978743,
          1.1062573747771438,
          -0.4191659531325107,
          0.8741931432181445,
          -0.18995242211681349,
          -0.7907241784664722,
          0.015546078254842511,
          0.09478014000251148,
          0.04193096686334938,
          0.28809291864919506,
          -0.5549868832656482,
          -1.066916915229407,
          -1.4131528690465636,
          1.075826694868329,
          0.109427453394519,
          -0.4318056945142128,
          0.5673445316672315,
          -0.2378477330130437,
          0.5026632792928543,
          0.38117297562895275,
          0.11716694429425886,
          0.11328126861903938,
          -0.07965058911976075,
          1.4572212606850514,
          -0.06796534494010467,
          -0.05327238118317158,
          -0.0941130807075655,
          0.02454810638225003,
          0.1763429670094041,
          0.001338493670747497,
          -0.32489589483787235,
          0.35658320302227314
        ],
        [
          -0.26155007202537023,
          -0.28921433013217035,
          -0.8306798226968042,
          0.518049781104917,
          0.05289515400626496,
          0.462233359310422,
          -0.15997291270611153,
          -0.14340630536497181,
          -0.014037078419846057,
          0.338375679980968,
          -0.6573106380662045,
          0.42701753932930764,
          -1.949747229218654,
          0.907561743891101,
          0.25962906852713985,
          -0.5441257272859841,
          -0.19077214530571868,
          0.037103369759291925,
          -0.18171057191069268,
          0.4365939975531478,
          0.11792606653608413,
          -0.17083222928639655,
          -0.2065036445166956,
          0.5975627323266778,
          0.07351729208737952,
          -0.1627916672268024,
          -0.3245670642327681,
          0.18222202101496546,
          -0.2397934203466635,
          0.005899465616437771,
          -0.7374996117935858,
          -0.01806644048621994
        ],
        [
          -0.001779900636244519,
          1.112149799530759,
          -0.004878147315772486,
          1.0260321611539185,
          0.08859227900195032,
          -0.7130635353947329,
          0.26709784717952917,
          0.004397815089552582,
          0.038095780620823416,
          0.1395808940172071,
          -1.1298668670758405,
          -1.4707360696290677,
          -1.8541043527822236,
          0.5104721476571785,
          -0.21684903999320818,
          0.1586850875245227,
          0.7191223894599109,
          -0.1257113269138171,
          0.12020359594856973,
          -0.027269210187578028,
          0.31703110982279836,
          0.5152364974750971,
          -0.12938112357850146,
          1.2378342838353582,
          -0.05729000950737112,
          0.133953425439539,
          -0.47538646706936305,
          -0.23368320995398145,
          0.020641565695952796,
          0.10870612282669281,
          -0.16917734168804208,
          0.22366514781501864
        ],
        [
          -0.11476211922047798,
          0.6378707869990053,
          -0.6326913756256299,
          0.9243863273529134,
          -0.09388774409813891,
          -0.4506156864567819,
          0.2332529856832409,
          -0.017968321038651928,
          0.47182875043569755,
          0.07116049368034787,
          -0.8060493617314249,
          0.16391990858685843,
          -0.8650420944060299,
          0.9908209712097374,
          -0.15867321305730597,
          -0.6522103584892821,
          1.3772087080402768,
          -0.2776581856624117,
          -0.036649940686370154,
          -0.39446193604812724,
          -0.00751935816663703,
          0.4575173238156413,
          -0.20859216782781748,
          0.09293800855219371,
          -0.3643994450511599,
          0.2067550105477075,
          -0.05617871803229044,
          -0.38948582147460975,
          -0.04750200804959889,
          0.2766412127955373,
          0.07039000421322807,
          0.05742862564359017
        ],
        [
          0.2162788077974267,
          -1.1422085270239506,
          -0.5840842065220513,
          -0.16967387408771029,
          -0.21577891735537952,
          0.9710999078061133,
          0.06413525866634964,
          -0.2997877160853938,
          0.4632673988682456,
          -0.09610400916724347,
          0.26346095636749883,
          1.6012295785026187,
          -0.3389120520957572,
          0.9596627639071241,
          -0.054823637043302675,
          -0.6717038296758429,
          -0.36131267411125206,
          0.13336404912665567,
          -0.965958067514693,
          -0.6204868246173952,
          -0.20039358363125395,
          -0.35675457543085687,
          0.11819503628327861,
          -0.32919274744952376,
          -0.015451179982799462,
          0.09049359471604733,
          -0.1264637965766602,
          -0.5913054617976875,
          0.03417983905786414,
          0.1294306409277605,
          -0.3781801822751658,
          -0.4486321727114292
        ],
        [
          -0.3868685247906713,
          0.20682839861653882,
          -0.47105484589826857,
          -0.3849760673999168,
          -0.29156182240965073,
          0.008668618026927593,
          -0.2699651906445466,
          -0.39202255967895633,
          0.1322554977763356,
          0.09474670762918676,
          -0.08858107641503632,
          0.16830199967652984,
          -0.6160111460532023,
          0.36379243575747017,
          0.1764478911763808,
          -0.4131013521903915,
          -0.35864013635455766,
          -0.22397418627128401,
          -0.06925863007825066,
          0.425653848552992,
          -0.3891703095433712,
          -0.2568594341673942,
          0.13910613195295266,
          0.17534238444774827,
          0.009930469782003038,
          -0.3377088085092896,
          -0.19069510214820845,
          0.17203422293963064,
          -0.1894536484684703,
          -0.041512905857649725,
          -0.1498829865846209,
          0.015621641197930605
        ],
        [
          0.04101401256219233,
          -0.6015693014514589,
          -0.43222474080745066,
          -0.611899758598325,
          -0.1979896383796408,
          0.3596763891638482,
          -0.264375165567562,
          -0.24897051743244936,
          -0.11318758915229134,
          -0.06445026060826582,
          0.5274807184439084,
          1.0505955903240354,
          0.3783574684885114,
          -0.6328737388739534,
          0.1526643778632916,
          -0.24793505538394417,
          0.053470839037253304,
          0.026819276508433514,
          -0.542259011070243,
          0.07873148104016016,
          -0.1728531339218616,
          -0.3638538457381343,
          -0.08771358306907083,
          -0.48570268081977713,
          0.07834315064587322,
          -0.2173788613471543,
          0.2530031675581662,
          -0.01572818254502294,
          -0.24103446957345662,
          -0.29251205332148955,
          0.014174347655102188,
          -0.021191033131404375
        ],
        [
          0.11262730580534616,
          0.5915403787820387,
          0.14785839423987773,
          -0.1431139319817547,
          0.10210814495960274,
          -0.6629881976007422,
          -0.18141692173649773,
          0.046868533316184256,
          -0.3646614533842368,
          0.15412546403948096,
          -0.22410778605305184,
          -1.0065062841779546,
          -0.7507760566436557,
          -0.27682185100044726,
          -0.2182632521684226,
          0.24768816470828298,
          0.02496834103538633,
          -0.02475651684745137,
          0.6352488773024801,
          -0.04375000471962743,
          0.03283289974630326,
          0.1532834155459762,
          0.2699769660486898,
          1.153098306087853,
          0.4997061287563343,
          0.0814213348558701,
          -0.26919477617558457,
          0.26871030430547577,
          -0.20188529669770292,
          0.15012947967096238,
          0.18122163151870133,
          -0.058177852752048606
        ],
        [
          -0.6077195476660489,
          -0.5750558045455646,
          -0.21904971933359157,
          -1.3536298750645062,
          -0.13653466514334878,
          0.22650443240904722,
          -0.1376357206198225,
          -0.19540619228863645,
          0.4271543456717761,
          -0.1175997971543205,
          0.4783885416494005,
          1.0845113324013347,
          0.47812743358824356,
          -0.7567089292520922,
          0.022053421417231885,
          -0.07084833284276275,
          -0.6559552214054468,
          -0.13406060890268107,
          -0.6517932514579555,
          0.0743755033679466,
          -0.3405539178610543,
          -0.40954843076372854,
          0.08300870052775401,
          -0.32812219168092344,
          0.05373537752631408,
          -0.24371831889359472,
          -0.11838354417563553,
          -0.44867053886976177,
          -0.030485802675351864,
          -0.4359588574516127,
          -0.08941498523844676,
          -0.2905969875726871
        ],
        [
          -0.0584788671504103,
          0.4503101394751756,
          0.8304862046442271,
          -1.051197474589749,
          -0.169760970533462,
          -1.2007037012423214,
          0.09049768073302526,
          0.2413451014772431,
          -0.006490563018303857,
          -0.3130897310196531,
          -0.4734358535665633,
          -1.103636555266233,
          0.4628105880464508,
          -1.714218674091495,
          0.3212465196390089,
          1.082973608719081,
          0.045508823597218154,
          0.13891351918946193,
          0.1695201169500309,
          -0.15082852606854055,
          -0.02670208306584368,
          -0.21824856433923043,
          0.4178297894354598,
          0.650139649411526,
          0.5515561259124485,
          -0.20994477242218643,
          0.10952429155940259,
          0.4003611410485351,
          -0.2910424051953504,
          -0.558490270702475,
          0.1635626373170838,
          -0.15755997670398073
        ],
        [
          -0.38582230271520285,
          -1.1506021293349322,
          0.024382188656771053,
          -1.2135870736309107,
          -0.26293152929060143,
          -0.22756431459812457,
          -0.31119291907847363,
          -0.3371390080680886,
          0.43016289757302706,
          -0.26456059230917855,
          0.37993687917861374,
          1.6951840977488486,
          1.5202496287195923,
          -1.0354110931825484,
          -0.05289929959416551,
          -0.10192136657943283,
          -0.111485744543799,
          0.04352392827401394,
          -0.39363284763978074,
          -0.332042492145223,
          -0.011686130506106882,
          -0.023007432726204327,
          -0.2945658282730983,
          -1.4489626654229517,
          -0.46722559059745583,
          -0.06338157087551644,
          0.1491097275902156,
          -0.17977779919429918,
          -0.044942796203092654,
          -0.13719762221642298,
          0.29094178779149477,
          -0.19221870917745984
        ],
        [
          -0.11220549293941424,
          0.37444009927296906,
          -0.2975504597588695,
          0.6598356305019061,
          -0.2379445270708444,
          0.0457580713812999,
          -0.12847030564509204,
          0.18340491057215863,
          -0.17771517890939614,
          -0.17359955992131723,
          -0.36456111629055926,
          -0.8276104277432883,
          -1.925774018134385,
          0.35419608460766067,
          -0.08438985598208579,
          -0.1051399485423119,
          -0.6637021134163781,
          0.048132249861960553,
          0.14945922433364986,
          0.2394609888086262,
          -0.17938149141067608,
          0.2092490901554875,
          0.3520096865280045,
          1.2855049917113506,
          0.48901710324095965,
          -0.3307209525612475,
          -0.23037700864872634,
          0.06964196656094515,
          -0.19752023611771954,
          0.03952636397438206,
          -0.5959886748765291,
          0.08403239024671308
        ],
        [
          0.03221649070830327,
          -0.36292493916050456,
          0.43410943388058554,
          -0.9863572079450582,
          -0.005143306538184088,
          -0.2630140024991871,
          0.14054079842054096,
          0.18330225989520343,
          0.2956421969668734,
          -0.3469035041159638,
          0.17549997129551034,
          0.225584089566799,
          0.6201202236348482,
          -1.7342623930279457,
          -0.2466904499292925,
          0.6426516317575255,
          0.04293047937773907,
          -0.10663889044857701,
          -0.34977133563348695,
          -0.5314107693871816,
          -0.13956059368389898,
          0.13886404833050583,
          0.26367288398840916,
          -0.4137963766003607,
          0.13790999069874685,
          0.07208769151211697,
          0.03650890679484839,
          -0.3044105454744198,
          -0.04466680430228083,
          -0.42802390990903544,
          0.5018244640370656,
          -0.06755423845790658
        ],
        [
          0.24220567564413173,
          -0.7099450169899177,
          -0.4372103700358054,
          -0.3914459422077977,
          -0.25978647783906167,
          0.935651654430036,
          0.10510136935006127,
          -0.08256521439289231,
          -0.3196196804404774,
          0.1860469263129169,
          -0.2033274859867868,
          0.45368375576311354,
          -1.3709068185495115,
          0.04054410626967832,
          -0.003078377949350998,
          -0.3223954418043918,
          -1.0040307047289114,
          -0.20552156036194952,
          0.22540003658008878,
          0.7152826576404525,
          -0.11711466107528679,
          -0.42894278116824847,
          0.10281041186882844,
          0.27795789974613755,
          0.5525686725465678,
          -0.17269351522217896,
          -0.20925115194641514,
          0.19160370976117028,
          -0.08681942642739637,
          0.10772577121393648,
          -0.4168398570817274,
          -0.31403765919634086
        ],
        [
          0.3197618122297039,
          1.1942739394458788,
          -0.18691035502902487,
          0.8528262625940002,
          0.020068750107596425,
          -1.1727594581263325,
          0.016827228049161987,
          0.11908636701322417,
          0.6509563070221508,
          0.1092018772101568,
          -1.0247874555833056,
          0.1314900492627265,
          -0.29346116947030726,
          0.7741767275690044,
          -0.3597733420611546,
          -0.2771708451737684,
          2.107928245200386,
          -0.11832938638516899,
          -0.47452559925544785,
          -0.5321278270862668,
          0.031040651666352313,
          0.559238128954394,
          -0.5527216661639106,
          0.22352598998357623,
          -0.34496569291451024,
          0.42121774240805293,
          0.014625008248962953,
          -0.5525568593212633,
          0.06619885414911253,
          0.1657914844537768,
          0.20331165068928886,
          0.1451223284926229
        ],
        [
          -0.29163888134965454,
          0.04628665719103822,
          0.08231254559919786,
          -0.022512618011223975,
          0.08890816003285922,
          -0.45453220996211074,
          0.17260896841349893,
          -0.18035694858512516,
          0.5256095362675692,
          -0.2660616644145341,
          -0.25606821191354473,
          0.5268160794077477,
          0.14107332529015398,
          0.08280891362811836,
          -0.25273788914964307,
          -0.35325732952659067,
          0.8579910165119722,
          0.05886310672303175,
          -0.4645874529462054,
          -0.6471967753659805,
          -0.31170110794440187,
          0.0953275911487588,
          -0.2835417695600023,
          -0.5575439899948496,
          -0.48019105617041713,
          0.13265944575104793,
          -0.06372615683191656,
          -0.4273079079322296,
          -0.24141014262289992,
          -0.2763584836683074,
          0.2536711542452187,
          -0.18133363606811917
        ],
        [
          0.16119038151597745,
          1.384770107145436,
          0.4333747985699282,
          0.7292573982613598,
          -0.2513756309809236,
          -1.615518078468631,
          -0.11645369034748838,
          0.48402941112757936,
          0.021572257524500132,
          0.21842430299847618,
          -0.9326042895393581,
          -1.9493350159438028,
          -1.0222384998684233,
          -0.33387393784514463,
          -0.1453372419063634,
          0.7987732388148466,
          0.9773199245289682,
          -0.1502872136482913,
          0.489063399489229,
          -0.008714697526852017,
          0.15704940671402948,
          0.5454679560931747,
          -0.061288005774173614,
          1.3188183235325912,
          0.3267546288285906,
          0.27317912228002655,
          -0.08474856196063095,
          0.13367254570140422,
          -0.08384958225010779,
          -0.11599620314452644,
          0.3775224078862357,
          -0.04141611898806447
        ],
        [
          -0.07121523697145792,
          0.45834704276545374,
          1.3112010056172607,
          -0.8092373490281372,
          -0.20246788986823386,
          -1.357392412263629,
          -0.26113112190947724,
          0.36773940034417485,
          -1.0136479351410805,
          -0.5476928540584539,
          -0.4160628684958295,
          -1.8110493192271924,
          0.2004284605739187,
          -2.7583014820620293,
          0.04139211092280563,
          1.578935473763593,
          0.6013899243364954,
          0.08408981080594587,
          1.4919628571204333,
          0.8880094616203533,
          -0.16343716292452162,
          0.18952416880621023,
          0.4406066442876151,
          0.2932916245812033,
          0.7813225364908262,
          -0.1891969548635733,
          -0.013771854657948404,
          0.782719164226785,
          0.014353535579872843,
          -0.5632807777995412,
          0.37637119453642015,
          0.23634592255431897
        ],
        [
          0.057443551042548745,
          -0.01869661886619664,
          -0.19101293613867792,
          0.222100851473974,
          0.02637749076767561,
          0.018909723540712384,
          0.23514137510188202,
          0.13547104366508572,
          -0.2448789811871553,
          0.1375986173217915,
          -0.6258748696510119,
          -0.2667246483866314,
          -1.0897600625991424,
          0.16282058274931113,
          -0.022684880303445364,
          -0.16127083563556022,
          -0.392878717628064,
          -0.3286980846197736,
          0.38115148008401595,
          0.31122481898711896,
          0.14932921434080954,
          -0.0692467965465361,
          0.09870529404521976,
          0.6218700925119183,
          0.12294139722542942,
          0.08381656867280862,
          -0.3190755119944652,
          0.2831896377562916,
          -0.2605258981715198,
          0.26744869257011744,
          -0.25852103765895607,
          0.05991909796790423
        ],
        [
          0.1960310788896581,
          -0.9700758860270041,
          -0.3500207680003766,
          0.22755919239454664,
          0.1399301190213898,
          1.0404220126498043,
          0.14114591271361993,
          -0.14307136916614974,
          -0.08351456487049008,
          0.088959397645088,
          0.3476427818340243,
          1.031423714345979,
          -0.7200718491375382,
          0.025992474067310225,
          0.05530347118205542,
          -0.2422895641160802,
          -0.17469547990545842,
          -0.12630082236528065,
          -0.4766769228714449,
          -0.1539995337121505,
          -0.03883794584008318,
          0.24019649522599118,
          -0.3220210236461122,
          -0.1534640391271298,
          -0.10337285112945256,
          -0.006919610834060354,
          -0.20276983609124308,
          -0.04697823812790549,
          -0.2955731054170283,
          -0.04794633435263151,
          0.00927535441353587,
          -0.2485655022623752
        ],
        [
          0.2203171076316924,
          -0.4181876952859886,
          -0.35392206980005625,
          0.5110009394669685,
          -0.21929374371646854,
          0.7565721243699195,
          -0.16314551152574192,
          0.18623020967897927,
          -0.2613696221376394,
          -0.08444208600950195,
          -0.33538726501320354,
          0.4024023390978867,
          -1.4230366929768545,
          0.3190969696671624,
          0.3324181093061477,
          -0.562522278101798,
          -0.66600000562957,
          0.04917540940619039,
          0.44764490672083773,
          0.36432526424077577,
          -0.027860206061283022,
          -0.3133910440332191,
          -0.10163988106424966,
          0.7062013070913827,
          0.3264345371784082,
          -0.25999548704451964,
          -0.4315879679867957,
          0.04233968119195354,
          -0.29160903817152717,
          0.26551846168233323,
          -0.3558431898214144,
          0.03952476082429193
        ],
        [
          -0.2800280260678289,
          0.2280276440477998,
          0.32022174203991255,
          -0.9435068737061691,
          -0.18635210576518146,
          -1.0309506869052654,
          -0.19282747499378655,
          -0.022689262053321498,
          0.4224712497887008,
          -0.3296482247366049,
          -0.3349241825297529,
          0.8983171515829811,
          1.1551139449876506,
          -0.9145419769724263,
          -0.10446025598476211,
          -0.0664096823440227,
          1.0211414274046264,
          -0.12876606246270095,
          -0.8179332555739236,
          -0.8978273549467161,
          -0.2453608850391992,
          0.3371182476773963,
          -0.08053873457497121,
          -1.1594994084589647,
          -0.8352498369691364,
          0.5572009867010174,
          0.01978636851873243,
          -0.19759983273995535,
          -0.113005246102353,
          -0.18642028116421175,
          0.6006255576479345,
          -0.31142593669480745
        ],
        [
          -0.21653789073974886,
          -0.22662084419216386,
          0.16368310200931194,
          -1.2109135931653991,
          -0.11951948381729383,
          -0.20075667433405936,
          -0.07488522591919142,
          -0.27597801932507915,
          0.446980878956202,
          -0.5017601919271192,
          0.19442055880711248,
          0.26077829932495356,
          0.5056020373103891,
          -0.8780690396350274,
          -0.20716361609271838,
          0.07071901630079476,
          -0.028815443799066684,
          0.07730418339177715,
          -0.5134899348688294,
          -0.4150151560810298,
          -0.3908320232028824,
          -0.3622497406032163,
          0.13020760614154683,
          -0.3516989528949021,
          -0.07223888307550018,
          -0.14577950184814528,
          -0.084418799814119,
          0.033313186261136406,
          0.16717349719363286,
          -0.6012218622155456,
          0.4516824564767427,
          -0.2154794946891457
        ],
        [
          -0.29580828405876264,
          -1.5570291748864424,
          -0.17149348239011541,
          -0.974297860792999,
          -0.03485684636048672,
          0.664572610949974,
          -0.3487536915689451,
          -0.2398323973678029,
          -0.01838675617586012,
          -0.12139713159734189,
          0.32353571963100497,
          1.7828188774217073,
          1.017878747474969,
          -1.806192470782676,
          -0.09382295287157245,
          -0.39737290957460786,
          -0.03652793703694807,
          0.0518244169880509,
          -0.4844599956055776,
          0.08765995487928689,
          -0.05656638821137424,
          -0.37611907743629225,
          -0.08084301055781652,
          -1.3558633461384282,
          -0.33022901667179844,
          0.19984010425286602,
          -0.022247968405304443,
          -0.036676171696331805,
          -0.10803721430131466,
          -0.4775802127049478,
          -0.08945408648328429,
          -0.06603362928076872
        ],
        [
          0.25835583392866257,
          0.8462027166262976,
          0.04036399472803374,
          0.5465772169412887,
          -0.043545031169952224,
          -0.04388323818558555,
          0.2045421833418944,
          0.35749841772711094,
          0.0193907513520453,
          0.2917010989158046,
          -1.0930422000488154,
          -1.0311926235364264,
          -2.0504700982667554,
          0.7085265447928344,
          -0.16161951001974711,
          0.11534197700294427,
          -0.011831632827654443,
          0.07370433546309492,
          -0.06243448875134072,
          0.21421615862570986,
          0.08225012559293304,
          -0.021183006129447308,
          0.41107601999988347,
          1.2966774942841368,
          0.18626058849853006,
          -0.23659043448340636,
          -0.4604100794085028,
          0.20635571342759945,
          -0.15494827117741602,
          0.09560183473596398,
          -0.32415872741699525,
          0.20199157389897116
        ],
        [
          0.2624306786857632,
          0.4283021477895028,
          -0.7401135053250171,
          1.2179483566500338,
          -0.10445672647393392,
          0.37774420020050153,
          -0.14846147183902636,
          -0.12256220784779945,
          -0.10213455614560557,
          0.4072182187336819,
          -0.9310953784821056,
          -0.513094432777404,
          -2.34372653664265,
          0.969203301772116,
          0.18005411320379958,
          -0.33049115429078574,
          -0.20081208361761474,
          -0.10149088269204809,
          0.3008937255524805,
          0.5510932148173241,
          0.34642917272628115,
          -0.03588686373425998,
          0.31117461352301606,
          1.3974539815027107,
          0.24963604731643435,
          -0.13228737969355592,
          -0.528718213389266,
          0.1477001044259029,
          0.18314080746690994,
          0.23307122140323633,
          -0.5852770199029393,
          0.24409241599540515
        ],
        [
          -0.3370867517161801,
          0.7115170897451037,
          -0.26157715057317343,
          -0.6196663033694586,
          -0.27634856157588256,
          -1.0747147050446006,
          -0.18403762071667776,
          0.04787845461930539,
          0.4711618616840658,
          -0.2972071446453995,
          -0.3854905779547511,
          0.07005397978412115,
          0.221285077496029,
          0.2600835751146707,
          -0.11684262817944896,
          -0.25809721442254385,
          0.8199144255708644,
          0.15953081033826744,
          -0.06027713146551893,
          -0.1561722222825927,
          -0.08692421433263323,
          -0.2257602560832891,
          0.1171949978129677,
          0.3629200420891399,
          -0.08944243371536031,
          -0.12414739064369228,
          -0.26895350614441815,
          -0.1872980075465847,
          0.023920416456233832,
          -0.16398331670067873,
          0.48915064702776145,
          0.2358878202857988
        ],
        [
          0.10593675220962585,
          -0.862141632917588,
          -0.014802901505978974,
          -0.6124026067141363,
          0.09245958469602729,
          0.08604367167736252,
          -0.30319377255551083,
          0.03566091200214552,
          0.03224708386222618,
          -0.27020715813192014,
          0.09926696802456407,
          1.141520491539309,
          0.927596566669147,
          -1.2483859620001765,
          0.166477646665762,
          0.002725500122586779,
          -0.0202458989389987,
          -0.14378519986149155,
          -0.3081079696364309,
          -0.1991298457253472,
          -0.3392647835784713,
          -0.17425176356675362,
          0.009069916220106593,
          -0.988879311452232,
          -0.03821719847902972,
          0.28454483705259453,
          0.007456460488314665,
          -0.4234561991415363,
          -0.127713996774009,
          -0.43772781694475865,
          0.2645274654755482,
          -0.1797266170546604
        ],
        [
          -0.047896185672611225,
          0.6082882704554691,
          -0.344674475720569,
          0.2190351495103597,
          0.15604510434886665,
          -0.2442795868209679,
          0.03412791523699854,
          0.10272792612425274,
          -0.31291825542181695,
          -0.08451532065963174,
          -0.19922280089956185,
          -0.7634767106658482,
          -0.8625564771728841,
          0.3674518508118289,
          0.1459428021079065,
          -0.1120548392897293,
          -0.10083348965177656,
          -0.22279713720430527,
          0.38934955696366885,
          0.5150574375647821,
          0.03720081007787213,
          0.1115197345040253,
          0.011213859008077217,
          1.061988865528765,
          0.2916143993463425,
          -0.2658564067866166,
          -0.08460962875702958,
          0.1101398910962897,
          -0.13154118386302588,
          -0.0271691164148325,
          -0.22541595097449052,
          0.26280225578628236
        ],
        [
          -0.42409783019621566,
          -0.24053366343449012,
          -0.34565391825417635,
          -0.22418523592907172,
          -0.07288965497165593,
          0.05027382625545439,
          0.13957477180858852,
          0.020702158768776836,
          0.20224761353229756,
          0.0012212712432290716,
          0.03698382959337074,
          0.9413317811721342,
          0.21107689581488231,
          0.1444558660815574,
          -0.1945500826851718,
          -0.4928612136223381,
          0.4090241585115315,
          -0.10144771114992432,
          -0.42369329388141524,
          -0.1696768423828416,
          -0.21720273638835033,
          -0.4199389861284555,
          -0.19766244087724222,
          -0.5771981157044952,
          -0.22315107237648707,
          0.06095303625316891,
          -0.13259811450668918,
          -0.2488996833939669,
          -0.14007540588813608,
          -0.2539997774166177,
          0.11476436994778873,
          -0.0224848390096076
        ],
        [
          -0.4308657946207055,
          -0.9469200209176495,
          -0.6784995160453979,
          -0.26381400885731643,
          -0.1025738634685376,
          0.5693944978788067,
          0.12495132740061159,
          -0.44428745548481613,
          0.42650750516413655,
          -0.2338826113113065,
          0.1367618487908278,
          1.582517606638619,
          -0.3413319713164127,
          1.0181085906282568,
          0.1938231721301454,
          -0.6685071679961981,
          -0.47591589008195595,
          -0.17236603786516475,
          -0.6551950119928067,
          -0.03796132006834068,
          -0.14150786890800132,
          -0.5934817333422712,
          -0.19338660735918553,
          -0.34070353734367986,
          -0.1870232265591669,
          -0.27417291308876846,
          -0.15358392251046485,
          -0.582117339693206,
          0.03988720797431517,
          -0.24528265136746596,
          -0.03318686726145845,
          -0.36708537967730454
        ],
        [
          -0.05912434136721589,
          0.42789548085263895,
          -0.5321794771995687,
          -0.1393621117070593,
          0.0858227726487949,
          -0.44628603566762864,
          -0.07267531575748512,
          -0.23533532960865802,
          0.6436748286075397,
          0.035611752117941965,
          -0.028285785895447845,
          0.7742850373815825,
          -0.18666003444298482,
          0.4390294572945706,
          -0.3075872451806135,
          -0.4441764207155757,
          1.0484555356786085,
          -0.031003236377088017,
          -0.4481365136538679,
          -0.174120664830244,
          -0.2547910890076978,
          -0.07133238461035213,
          -0.2946161877476493,
          -0.19101325629865615,
          -0.31743635031131445,
          0.10381847185789811,
          0.01572160732478282,
          -0.13729326144105405,
          0.07221118168568467,
          -0.07698594764735876,
          0.026590431821955075,
          -0.17394706074237004
        ],
        [
          0.09848793085206285,
          -0.0660932613034595,
          0.39763054659797814,
          -0.6142258129061865,
          -0.16188508141202648,
          -0.1930692949583154,
          -0.05451225288446438,
          -0.025874460365029696,
          -0.05845182445659334,
          -0.0820597254711472,
          0.3346581220972088,
          0.31836184497668657,
          0.5749609817514927,
          -0.8146907931976544,
          -0.12701520851467757,
          0.35765545107118263,
          0.11858835392670025,
          -0.3395742879540132,
          -0.15742224999430593,
          -0.5267167169458041,
          0.03399527227549644,
          0.16147780872049247,
          -0.0023676492652167373,
          -0.3179089692292955,
          -0.03474058625236433,
          0.30654282689010637,
          -0.09120292494447355,
          -0.11954408405043944,
          -0.09793515267982023,
          -0.10315709894446305,
          -0.07635419767006248,
          0.07453518138983954
        ],
        [
          0.10803406635140268,
          -1.0763354541776524,
          -0.6010139694909109,
          -0.3263421041528644,
          0.10592324096911176,
          0.6013178212485842,
          0.11577134605666144,
          -0.17525129072876922,
          0.5953255059323493,
          -0.03791160826977048,
          0.18154442010530572,
          1.6527321240254043,
          0.2923418367631577,
          0.056893563901531774,
          -0.11577180147112533,
          -0.6637254394975782,
          -0.36876930857475715,
          -0.015079721160551243,
          -0.90940247918881,
          -0.2440158469590759,
          -0.11607767600988993,
          -0.2313897933467971,
          0.23994566322760041,
          -0.5385488101033203,
          0.08796363750981008,
          0.08431932177457178,
          0.19377169916438375,
          -0.19571986421616802,
          0.14937974618413716,
          -0.2571040818422474,
          -0.14917735402083424,
          -0.33165269354185706
        ],
        [
          0.12089686359889064,
          0.5608354567227982,
          -0.43977290379057876,
          0.5818429742432685,
          0.16662151273864073,
          -0.4004762695427587,
          0.24234506759590568,
          -0.12225287423403271,
          0.13438445947163527,
          -0.003216095900014124,
          -0.6615367282446536,
          -0.12250626809275121,
          -1.2075884490006308,
          0.32706366443262225,
          -0.14525652378582807,
          -0.1625117777028719,
          0.8170403012731111,
          -0.10590798843658619,
          0.3200266605135161,
          0.1500276178199164,
          0.011671304092273356,
          0.37301908551444,
          -0.2295753602638886,
          0.8109035345757658,
          -0.25880078407621865,
          0.35007394659470537,
          -0.22558593486353412,
          -0.049066758655817666,
          -0.16615185268964222,
          -0.03401094288639914,
          -0.16901378211680546,
          -0.11424122577900328
        ],
        [
          0.12001004134194292,
          0.08684134149720144,
          0.06118443582068707,
          -0.5610691595960114,
          -0.029759501588681406,
          -0.38878731083570817,
          -0.09439510501210759,
          0.23724642101994242,
          -0.060619922905981546,
          -0.3532951388203162,
          0.2721433077805698,
          0.05428983971328067,
          0.400905142507676,
          -0.9984875668107895,
          -0.30093377040217145,
          0.07746239492552852,
          0.5703137541116646,
          -0.04707626971119355,
          -0.5288009498889883,
          -0.6069372059498771,
          0.020061855310919953,
          0.07426842110580789,
          0.083223487467159,
          -0.0746923166456882,
          -0.14447627248951428,
          0.07310847525182389,
          -0.026637817929528067,
          -0.15651475506065832,
          -0.13677157910478102,
          -0.23906321034731517,
          0.15812375021674968,
          0.028265570766055806
        ]
      ]
    },
    {
      "activation": 0,
      "biases": [
        -0.09679498416080672,
        0.17633768003798067,
        -0.1899639237406025,
        -0.045897289665180904,
        -0.07460911704004633,
        -0.22447236256760608,
        -0.11766603274422407,
        -0.1635610146199182,
        0.146014796000694,
        -0.306535328505014,
        -0.09217731016247317,
        -0.2277042733050821,
        -0.029481457043154562,
        -0.03588701064953485,
        0.05103057677431371,
        0.13911913362380476,
        0.3054804265596151,
        0.05389197047969423,
        0.30727382298696443,
        0.07300539632587581,
        0.20951361509616606,
        0.3755179516722137,
        0.12761699186325626,
        0.027194287787167662,
        0.2567504208101387,
        0.32545124945672577,
        0.05603129533722451,
        -0.003354333352331162,
        0.26221707410095657,
        0.28746720441405726,
        -0.13636331004951066,
        -0.026840999385566052,
        0.04725811951138673,
        -0.16803527435832089,
        -0.009645575209462421,
        -0.19627585725143176,
        -0.14529293333904794,
        -0.2530186719130294,
        0.061884549511401,
        -0.268481647143498,
        0.10212133350098358,
        0.11814274858960136,
        -0.038872698095025936,
        0.11626772890772297,
        0.38035730174183574,
        -0.01902483621458745,
        0.11067101514077256,
        0.11454939201303334,
        0.2682060642093803,
        0.2291428690255097,
        0.3691588805314464,
        0.5136035530473502,
        0.20753740150689903,
        0.09951444070592719,
        0.029251077039284645,
        -0.015614865475175793,
        0.16425145215513595,
        -0.1504841062209792,
        -0.2898675588457036,
        0.009320762951736599,
        -0.1079332914585193,
        -0.22427114159996472,
        -0.08609271173316435,
        -0.19561694514211214,
        -0.11724054521796597,
        -0.18848474698233678,
        -0.13210549793250023,
        -0.2501359539172786,
        0.010103894742093137,
        -0.10526538031331775,
        0.04293281832167872,
        0.2217291152620225,
        0.1822244791454251,
        0.010154132088607338,
        0.20716708622117358,
        0.04972790065047168,
        0.18641095604296434,
        0.05396785290613673,
        0.326101949845953,
        0.004277210665505022,
        0.22847437800523374,
        0.2322895783785043,
        -0.06991861321143318,
        -0.00320859140730186,
        0.18939879024169431,
        0.17290173171289508,
        -0.28360505946147857,
        -0.10257368274403902,
        -0.04191415155452328,
        -0.11246186114878062,
        -0.12153359534088695,
        -0.1327190407647359,
        -0.06593300989886022,
        -0.20761385853980555,
        -0.056340684311065745,
        -0.13820966146311342,
        0.08761282575657699,
        -0.09032850565697045,
        0.10051810670575517,
        0.26673636718231514,
        0.2051042908141086,
        -0.027446302699081677,
        0.13763937034941626,
        -0.012001838305157414,
        0.2578114266831101,
        0.18593423983800234,
        0.23550224229030808,
        0.04044519875533253,
        0.12793241043247974,
        0.3139451168982312,
        0.026311048258176643,
        0.0519296772518613,
        0.10630837109816428,
        0.3112711088581413,
        -0.0722607105437677,
        -0.11644936127712821,
        -0.12231315798267561,
        -0.10581924225800382,
        -0.2516867275928856,
        -0.15479376545472262,
        -0.3257941582832922,
        -0.14773760407633374,
        -0.1274614054574269,
        -0.13420768677439965,
        -0.0782148455620566,
        0.004160985466406985,
        -0.05724356583948568,
        0.3379251630907389,
        0.24416456653802968,
        -0.008714539986071523,
        0.1977334915408391,
        0.16748813564552656,
        0.19586303534147978,
        0.15905672569221962,
        0.32946183173127597,
        -0.06276393532495725,
        0.236719803338372,
        0.21550613114487588,
        0.014776975791507245,
        -0.07840489822858286,
        0.0018330235424450839,
        0.02430882840126095,
        -0.04910243816973499,
        0.01609123069382273
      ],
      "cols": 144,
      "rows": 32,
      "weights": [
        [
          0.10808130085167464,
          -0.18466491163703108,
          0.07701608427075657,
          -0.39301739459880775,
          -0.032915932930870424,
          0.27350743921831366,
          0.06908274984221838,
          -0.0375665067519739,
          0.21185570622657135,
          0.11179165576121296,
          0.19264855438561482,
          -0.034759347909265374,
          -0.04362935732570698,
          0.09708641412389173,
          0.09953476782326333,
          -0.014447148581428247,
          -0.41911433769895323,
          0.035273618276703125,
          0.1452279065099159,
          0.12044947440636607,
          0.1546060879903778,
          -0.7493766339538008,
          -0.04869888951432608,
          0.13566417509360612,
          0.011608169276585069,
          -0.1943660893106221,
          -0.10282782838416972,
          -0.10050008600818301,
          -0.07020731059316049,
          -0.10540631261886604,
          -0.08877112061015978,
          -0.30585014232130586,
          -0.15408244893921286,
          0.3036830161671616,
          0.14144221694372924,
          -0.07595419238117332,
          0.06680093316486856,
          -0.191203942245357,
          0.004437884151271188,
          -0.07549368956511877,
          0.025391270094881412,
          -0.23689879160122077,
          -0.009716301200565526,
          -0.055336173866372844,
          -0.14684365486984327,
          -0.0666446443824432,
          0.31510082595711675,
          0.07169550545416026,
          0.050402194700912874,
          -0.06717408636229098,
          -0.07725238117095598,
          0.024135370556927695,
          -0.031305477869068205,
          -0.20284829170265922,
          -0.2549986554243873,
          -0.002678581114584349,
          0.30081481125918674,
          -0.22334920296508015,
          -0.13846113337110555,
          -0.23067390923172099,
          -0.08165285579049796,
          0.053452890655806294,
          -0.022670839015502025,
          -0.07185972427094722,
          -0.16291855992768897,
          -0.07618410502379289,
          0.12267663707608546,
          -0.1251858600025015,
          -0.10154081036403462,
          -0.015870388768912797,
          -0.030148691918248018,
          0.14651643043399937,
          -0.3561367876622009,
          -0.07170823936848095,
          0.06717035867054225,
          0.08795338647210997,
          -0.004452425369370935,
          -0.1369109984344252,
          0.1429431905554355,
          0.11601041692876096,
          -0.06270621598547695,
          -0.049332300927761426,
          -0.25070565060896544,
          0.00808447475406897,
          0.21816439580820654,
          -0.06051174733802465,
          0.11368359406967565,
          -0.2504781367357961,
          -0.023833289564915018,
          0.05289417733777568,
          -0.056676700754964504,
          -0.029285902944162483,
          -0.033921117647400946,
          -0.15540189441642174,
          0.08432053923789089,
          0.10892850202658266,
          0.05475745187077997,
          0.11259737395888614,
          0.09048761716911186,
          -0.07069266130187507,
          -0.2555155280808694,
          0.05969935181021721,
          0.130616166180022,
          0.051271501291130596,
          0.06368756886903588,
          -0.055792904830625954,
          0.10187578970838514,
          -0.0006354035993071159,
          0.007574466534048668,
          -0.08358160226097532,
          -0.2560315107483833,
          0.0008912793121796141,
          0.01900785349912828,
          -0.1040460848393885,
          -0.14615302623529178,
          -0.197016042350723,
          -0.21670325393326925,
          0.22466142936422995,
          -0.09248338096165998,
          0.13985786863552116,
          -0.12585756049276925,
          -0.12266982850711972,
          0.20514106216583153,
          -0.020699925203212514,
          0.0044216131816523395,
          -0.02023325056973212,
          -0.029241521854095325,
          -0.12065842213812962,
          -0.15217959038868573,
          -0.17116283211784253,
          0.18979355925644176,
          0.023330425213696656,
          -0.09144505059776406,
          -0.18805052170605652,
          0.14224761295422567,
          0.050152049005084465,
          -0.10840250353551929,
          -0.21768034776203626,
          -0.1198733120157112,
          0.06646541247747967,
          0.09495493571230951,
          -0.1436656827019173,
          -0.018792468797603185,
          -0.04262454073432996
        ],
        [
          0.5476238484398547,
          -0.2867481352482005,
          0.6051338266036823,
          0.42226004660320604,
          0.3945293197569679,
          0.5324977891372928,
          0.6474358381022749,
          0.6093457378193913,
          -0.0485111648510248,
          0.589045842376936,
          0.34452516379771225,
          0.6558957522544534,
          -0.013071529266928743,
          0.0006031127999986097,
          0.02406367257872585,
          -0.7942332138415545,
          0.10171745981563989,
          0.023612511403302155,
          -0.12428730246129359,
          -0.17707613642757675,
          -0.16068917912731767,
          0.7740990815404085,
          -0.0008468255710029087,
          0.005363014351245984,
          -0.3197553053040422,
          -0.007904215397216028,
          -0.23873270449277945,
          -0.0015729220761725197,
          -0.14604941583746897,
          -0.04745098178089915,
          0.713887827286493,
          0.4711222710569647,
          0.3844406075189827,
          0.5472539502171462,
          0.5378786797505505,
          0.6218170172549737,
          0.6117919187389207,
          0.5855074264216925,
          0.482387027759202,
          0.7281193614304345,
          -0.022197477885705544,
          0.039933921443361504,
          0.029540031928194075,
          -0.7150207082558456,
          -0.2419866132861703,
          0.01919121689902262,
          0.17842530279591942,
          -0.25341821243965407,
          -0.33960914164563716,
          0.8129581895409324,
          -0.022415250232986187,
          1.0697786242143412,
          -0.3473177058180491,
          0.13387260328689063,
          0.0362557153183749,
          0.02510675502522638,
          -0.1535195345824127,
          0.45289800323866775,
          0.6667535439142925,
          0.43941977041538166,
          0.355776354924457,
          0.46135157555389444,
          0.5447448032778948,
          0.6269454704255862,
          0.5554728797720244,
          0.6120767144576846,
          0.4026511330227353,
          0.6756861356319588,
          0.046865674873360144,
          -0.013175425607489362,
          0.0009810186628059431,
          -0.840811521705792,
          0.028511604600305843,
          0.1178392847482576,
          -0.035937875694820647,
          0.22373846659886734,
          -0.27588919046336413,
          0.732640205021477,
          0.0037724134369608174,
          0.017642657403916625,
          -0.36138158432851497,
          0.18142286742989547,
          -0.007044240091553883,
          0.016462530263948266,
          -0.18708461979257726,
          -0.07375519951080345,
          0.650871819318911,
          0.4486586412712622,
          0.3830303383561914,
          0.5187356806375605,
          0.5238510063437892,
          0.5661166480419105,
          0.57308896450572,
          0.5839376360807707,
          0.41043668504592795,
          0.5545246987869187,
          -0.00429319743496887,
          0.017891820057243924,
          0.004857105106221791,
          -0.7486756337142059,
          0.0009212788088335458,
          0.03899185712918797,
          -0.18840045629793448,
          0.25929752133536865,
          -0.3189895512169057,
          0.7248097820480577,
          -0.05624509560508717,
          0.009379215140898027,
          -0.3881791128867558,
          0.012354842928615476,
          -0.06763455686435942,
          0.032132872197247156,
          -0.14375130694964902,
          -0.27193907306712184,
          0.6871805117742821,
          0.4102938579446586,
          0.33645704620311373,
          0.4574509817708839,
          0.614456790345921,
          0.617630474215576,
          0.5845541048646584,
          0.5392905339156057,
          0.3521811216196236,
          0.5604507341825865,
          -0.015337167790266868,
          0.02160705312994438,
          0.002062254892351258,
          -0.8890766707293538,
          0.05325867218432147,
          0.23267723066364432,
          -0.15193146422877143,
          -0.01957212026402489,
          -0.2938666504499782,
          0.7095598194807264,
          0.016780412307583894,
          0.01268242411940224,
          -0.28660961384346034,
          0.02826145748633123,
          -0.26118873626909533,
          -0.007360531098047091,
          0.024314747218034963,
          0.024826548916464762,
          0.01291636530501562,
          0.015386420402019185
        ],
        [
          0.12573827282741223,
          -0.39653679755212096,
          0.045233930958808205,
          -0.34079626145277747,
          -0.1987526541507041,
          -0.201994930031852,
          0.11674477491292055,
          -0.0010203750831688499,
          -0.10775031557536487,
          0.04569315920652457,
          -0.12226788006755678,
          0.051671478172295116,
          0.03812234737260532,
          0.03726339156640354,
          0.07257894402028973,
          -0.33530357312583164,
          -0.20313254095271602,
          -0.44217018081883747,
          0.2195121025537993,
          0.3712907646572606,
          0.3835388040071093,
          -0.25250907213531654,
          0.4683391840079271,
          0.049125152578474454,
          -0.2251245986034114,
          0.20293281228702878,
          -0.3813261596476957,
          0.02309333518408438,
          -0.19844857970252272,
          0.027460262022600983,
          0.12785264616956699,
          -0.1315446396047167,
          -0.316037440414053,
          -0.1497829327047056,
          -0.051020408167539257,
          0.16316226014303767,
          -0.08001841144964744,
          0.04711372261213509,
          -0.05865819343748315,
          0.0928190707852839,
          0.06679995726878905,
          -0.034713885517166185,
          0.010096294430294535,
          -0.32514200294494133,
          -0.18855766597055643,
          -0.5364718922113293,
          0.13133152774073295,
          0.3613329280935515,
          0.3970669508143223,
          0.03467309545742269,
          0.47173942414972686,
          -0.5465938974646899,
          -0.34973376956804536,
          0.013574175557855762,
          -0.2198066147373841,
          0.0217048903400463,
          -0.09462143803910543,
          -0.19739255090893312,
          -0.0036757043917754386,
          -0.21474776229387657,
          -0.2752485192266972,
          -0.22714248422539585,
          -0.1903958528384078,
          -0.024889134460036478,
          -0.13202455208119065,
          0.02676424790721617,
          -0.1939027900184012,
          0.21511576589183248,
          0.05187575596874387,
          -0.08588642877915756,
          -0.03783884413295421,
          -0.12925376737639113,
          -0.25969950612144155,
          -0.38451672558966016,
          -0.12693519280077503,
          0.18175589127917308,
          0.4089327552903299,
          -0.052686734192448695,
          0.5115668974825484,
          0.024967454198505108,
          -0.1385637049248348,
